tree
version=v4
num_class=1
num_tree_per_iteration=1
label_index=0
max_feature_idx=89
objective=binary sigmoid:1
feature_names=career_wins_a career_wins_b career_wins_diff career_losses_a career_losses_b career_losses_diff career_draws_a career_draws_b career_draws_diff career_nc_a career_nc_b career_nc_diff career_fights_a career_fights_b career_fights_diff ko_win_pct_a ko_win_pct_b ko_win_pct_diff tko_loss_pct_a tko_loss_pct_b tko_loss_pct_diff dec_win_pct_a dec_win_pct_b dec_win_pct_diff r5_w_pct_a r5_w_pct_b r5_w_pct_diff r10_w_pct_a r10_w_pct_b r10_w_pct_diff r5_ko_pct_a r5_ko_pct_b r5_ko_pct_diff r10_ko_pct_a r10_ko_pct_b r10_ko_pct_diff days_since_last_a days_since_last_b days_since_last_diff fights_last_365d_a fights_last_365d_b fights_last_365d_diff glicko_mu_a glicko_mu_b glicko_mu_diff glicko_phi_a glicko_phi_b glicko_phi_diff glicko_sigma_a glicko_sigma_b glicko_sigma_diff avg_opp_glicko_last5_a avg_opp_glicko_last5_b avg_opp_glicko_last5_diff is_debut_a is_debut_b is_debut_diff height_cm_a height_cm_b height_cm_diff reach_cm_a reach_cm_b reach_cm_diff reach_to_height_ratio_a reach_to_height_ratio_b reach_to_height_ratio_diff ko_win_rate_10_a ko_win_rate_10_b ko_win_rate_10_diff tko_loss_rate_10_a tko_loss_rate_10_b tko_loss_rate_10_diff dec_rate_10_a dec_rate_10_b dec_rate_10_diff avg_scheduled_rounds_10_a avg_scheduled_rounds_10_b avg_scheduled_rounds_10_diff inactive_180d_flag_a inactive_180d_flag_b inactive_180d_flag_diff inactive_365d_flag_a inactive_365d_flag_b inactive_365d_flag_diff opp_glicko_min_last5_a opp_glicko_min_last5_b opp_glicko_min_last5_diff opp_glicko_std_last5_a opp_glicko_std_last5_b opp_glicko_std_last5_diff
feature_infos=[0:61] [0:54] [-45:56] [0:103] [0:92] [-86:103] [0:9] [0:9] [-9:9] [0:5] [0:4] [-4:5] [0:112] [0:99] [-84:111] [0:1] [0:1] [-1:1] [0:1] [0:1] [-1:1] [0:1] [0:1] [-1:1] [0:1] [0:1] [-1:1] [0:1] [0:1] [-1:1] [0:1] [0:1] [-1:1] [0:1] [0:1] [-1:1] [0:21183] [0:6539] [-6377:17883] [0:35] [0:35] [-35:35] [725.0869140625:2361.36328125] [798.83013916015625:2403.952392578125] [-1151.19189453125:1146.358642578125] [90.631523132324219:350] [90.901870727539062:350] [-258.90243530273438:255.55995178222656] [0.059946037828922272:0.060021951794624329] [0.059956327080726624:0.060014467686414719] [-5.3251336794346571e-05:3.6699453630717471e-05] [817.23638916015625:2309.872314453125] [794.42645263671875:2226.292724609375] [-819.3377685546875:978.3907470703125] [0:1] [0:1] [-1:1] [155:206] [155:206] [-22:18] [152:216] [152:216] [-28:22] [0.9351351261138916:1.1166666746139526] [0.9351351261138916:1.1166666746139526] [-0.15191082656383514:0.10623249411582947] [0:1] [0:1] [-1:1] [0:1] [0:1] [-1:1] [0:1] [0:1] [-1:1] [3:12] [3:12] [-9:9] [0:1] [0:1] [-1:1] [0:1] [0:1] [-1:1] [751.281494140625:2309.872314453125] [763.541748046875:2226.292724609375] [-1080.0157470703125:1089.1417236328125] [0:764.26776123046875] [0:757.34991455078125] [-618.91094970703125:676.87286376953125]
tree_sizes=3493 3500 3515 3537 3498 3515 3514 3516 3513 3514 3510 3527 3512 3516 3518 3529 3525 3526 3526 3518 3527 3515 3533 3519 3514 3520 3532 3518 3498 3522 3524 3524 3517 3534 3534 3506 3539 3536 3519 3547 3511 3527 3524 3503 3531 3512 3521 3527 3516 3496 3521 3528 3511 3513 3509 3529 3521 3529 3531 3531 3524 3533 3516 3520 3527 3521 3515 3526 3531 3524 3521 3540 3538 3546 3526 3504 3510 3527 3528 3537 3513 3538 3525 3503 3512 3506 3530 3533 3530 3522 3506 3519 3507 3533 3529 3537 3520 3519 3537 3524 3528 3507 3534 3512 3505 3505 3508 3505 3505 3529 3510 3504 3504 3521 3488 3536 3521 3521 3511 3500 3518 3512 3500 3506 3481 3480 3476 3509 3503 3494 3508 3508 3500 3489 3486 3508 3492 3483 3536 3494 3496 3521 3487 3508 3515 3499 3463 3486 3477 3484 3464 3494 3467 3486 3482 3470 3530 3461 3479 3447 3484 3480 3497 3490 3479 3481 3488 3493 3469 3474 3471 3501 3459 3464 3450 3450 3470 3512 3460 3438 3484 3473 3512 3468 3480 3491 3487 3451 3481 3466 3506 3495 3504 3455 3496 3475 3467 3490 3491 3468 3487 3525 3479 3484 3474 3478 3489 3476 3469 3467 3498 3467 3468 3496 3484 3487 3462 3467 3481 3457 3471 3472 3473 3464 3484 3445 3460 3467 3465 3474 3475 3487 3468 3481 3492 3487 3489 3452 3484 3446

Tree=0
num_leaves=31
num_cat=0
split_feature=44 44 44 29 44 70 29 44 69 71 57 58 70 44 71 70 47 26 69 71 14 44 44 70 48 36 47 18 26 66
split_gain=20134.2 2264.88 1074.11 276.153 243.052 189.495 136.662 118.837 78.2678 70.0214 66.8364 78.6183 61.1582 56.088 55.3247 55.2928 54.0808 51.3842 51.0576 45.6377 44.1541 41.988 36.5418 36.4879 32.8037 31.8128 30.9182 30.6798 27.8662 25.6041
threshold=-34.987861633300774 162.26194763183597 -222.77080535888669 -0.15634921193122861 307.67845153808599 1.0000000180025095e-35 -0.46904762089252466 81.700340270996108 0.18333333730697635 -0.12916667014360425 1.0000000180025095e-35 1.0000000180025095e-35 1.0000000180025095e-35 -119.95439147949217 -0.024404762312769886 1.0000000180025095e-35 -186.12993621826169 -1.0000000180025095e-35 0.47222222387790685 0.052777778357267387 12.500000000000002 -284.24073791503901 -162.86851501464841 0.10555555671453477 0.059998406097292907 119.50000000000001 -182.37062072753903 1.0000000180025095e-35 0.075000002980232253 0.26785714924335485
decision_type=2 2 2 8 2 8 8 2 10 8 10 10 8 2 8 8 2 10 10 10 2 2 2 8 2 8 2 10 10 10
left_child=2 3 6 19 12 8 27 10 13 -7 11 15 17 -4 -6 -5 -14 -3 22 -2 -17 -8 -11 -9 -12 -18 -25 -1 -15 -22
right_child=1 4 5 7 14 9 21 23 -10 18 24 -13 16 28 -16 20 25 -19 -20 -21 29 -23 -24 26 -26 -27 -28 -29 -30 -31
leaf_value=-0.33549186933600289 -0.27496268622543246 -0.2573883287871308 -0.31686309504766441 -0.27244217663642345 -0.19445839976978907 -0.26683305557038689 -0.33323445872903112 -0.25224112282930305 -0.32976376283459141 -0.30726888357721044 -0.26782018760204884 -0.32627360263847061 -0.24204275689339025 -0.30189394779355966 -0.20782248384277985 -0.25331104100117136 -0.20877398039630779 -0.22711120798755186 -0.3096188420075533 -0.30360063638939472 -0.29033037424759439 -0.32072645431999863 -0.28640643278834416 -0.25435934446355241 -0.20302266754203832 -0.22185540131840231 -0.23025427839114326 -0.34509303348328724 -0.26788875640634513 -0.25373160763121944
leaf_weight=698.31101775169373 164.46707367897034 121.57327651977539 704.92891788482666 387.02460408210754 836.30649089813232 129.90692853927612 1323.8251340389252 289.22674655914307 444.37973856925964 178.68330359458923 16.667304039001465 28.187352418899536 136.2797212600708 381.38713359832764 1216.7131948471069 1356.6695272922516 583.60074877738953 341.92484021186829 385.79906702041626 194.12507057189941 86.522916555404663 635.56352019309998 541.19716644287109 104.66086506843567 50.001912117004395 606.64084553718567 456.39000177383423 2242.73282289505 42.893797159194946 47.305730581283569
leaf_count=2849 671 496 2876 1579 3412 530 5401 1180 1813 729 68 115 556 1556 4964 5535 2381 1395 1574 792 353 2593 2208 427 204 2475 1862 9150 175 193
internal_value=-0.281424 -0.232437 -0.326057 -0.257401 -0.211772 -0.306337 -0.337361 -0.253201 -0.315543 -0.294613 -0.258589 -0.259967 -0.222545 -0.309947 -0.202379 -0.258971 -0.218174 -0.235053 -0.297877 -0.290466 -0.255473 -0.329177 -0.291585 -0.2407 -0.219222 -0.215441 -0.234751 -0.342813 -0.298456 -0.277393
internal_weight=14733.9 7024.29 7709.61 3181.25 3843.04 2809.18 4900.43 2822.66 1573.59 1235.59 1972.38 1905.71 1790.02 1129.21 2053.02 1877.52 1326.52 463.498 1105.68 358.592 1490.5 1959.39 719.88 850.278 66.6692 1190.24 561.051 2941.04 424.281 133.829
internal_count=60112 28658 31454 12979 15679 11461 19993 11516 6420 5041 8047 7775 7303 4607 8376 7660 5412 1891 4511 1463 6081 7994 2937 3469 272 4856 2289 11999 1731 546
is_linear=0
shrinkage=1


Tree=1
num_leaves=31
num_cat=0
split_feature=44 44 44 29 44 71 51 71 44 44 28 37 24 58 60 44 71 71 51 44 71 51 71 68 43 28 29 44 24 71
split_gain=18555.3 2050.75 1010.17 253.005 218.658 185.141 123.052 110.295 108.205 73.1158 70.8159 69.5992 67.4689 65.158 60.6582 57.1553 52.8308 49.6515 43.1277 42.3065 42.2111 37.9547 34.5048 33.6191 31.978 31.11 30.0895 28.7516 26.9723 25.939
threshold=-34.987861633300774 162.26194763183597 -238.49698638916013 -0.15634921193122861 307.67845153808599 0.084523811936378493 1530.7083740234377 0.052777778357267387 81.700340270996108 -368.38349914550776 0.61250001192092907 60.500000000000007 0.90000000596046459 199.50000000000003 205.50000000000003 -105.51443099975585 -0.18730159103870389 -0.024404762312769886 1514.6737060546877 -109.41281127929686 0.052777778357267387 1438.7738037109377 -0.12361111119389533 -0.25277778506278986 1821.3093261718752 0.94999998807907116 0.068055558949708952 -182.16950988769528 0.63333335518836986 -0.012500000186264513
decision_type=2 2 2 8 2 10 8 10 2 2 8 10 10 8 8 2 8 8 10 2 10 8 8 10 2 10 8 2 10 8
left_child=2 3 7 20 12 6 15 9 11 -1 -8 13 16 -5 -15 24 -3 -6 22 -12 -2 -10 -16 -13 -4 28 -17 -7 -18 -23
right_child=1 4 5 8 17 27 10 -9 21 -11 19 23 -14 14 18 26 25 -19 -20 -21 -22 29 -24 -25 -26 -27 -28 -29 -30 -31
leaf_value=-0.055856291000059191 0.0063994061835953965 0.068398950317108714 -0.008935659341178211 -0.041760648676256056 0.082810875308560489 -0.05175874949047924 -0.0071677405904604224 -0.060837920685242422 0.055754981839935137 -0.041710640673747128 -0.034970172414921362 -0.0042033576262039615 0.064982787335080408 0.080777488828458158 0.081663882533531795 -0.0071171850106922343 0.041028983186010295 0.070212277819409141 0.011753691515554072 -0.018190951152726995 -0.021155782569119281 0.05023089389107515 0.028872718336517701 0.016919102355610015 -0.035501836552244287 0.015880369735558349 0.021908552974673864 -0.035836341505472803 0.056464052024247112 0.030866522851682305
leaf_weight=1126.5247083753347 164.61886362731457 190.01613481342793 445.24232561886311 21.936003148555756 844.98672312498093 274.08183647692204 265.48671039938927 2306.8863992393017 174.04475232958794 1215.3887844234705 822.4141648709774 181.75619016587734 798.22796151041985 33.64455246925354 20.172178119421005 95.147961795330048 462.33921763300896 1227.696092069149 260.42370860278606 339.7504645884037 193.50660145282745 139.10429435968399 1102.3377243578434 358.10481835901737 86.595640912652016 54.836757838726044 143.06569173932076 536.90564845502377 297.83281670510769 541.63395699858665
leaf_count=4634 671 769 1822 90 3412 1126 1085 9502 706 4995 3370 740 3231 136 82 389 1874 4964 1060 1389 792 564 4481 1458 355 223 584 2203 1206 2199
internal_value=0.000194894 0.046935 -0.0429423 0.0231886 0.0664868 -0.0248832 -0.0188556 -0.0546301 0.0271929 -0.0485151 -0.0258069 0.0220546 0.056301 0.0266507 0.0277101 -0.00596799 0.0494056 0.0753484 0.026419 -0.0300649 -0.00848954 0.0390854 0.0298214 0.00980776 -0.0132613 0.0449774 0.010315 -0.0412175 0.0470764 0.0348235
internal_weight=14724.7 7067.22 7657.49 3191.28 3875.94 3008.69 2197.7 4648.8 2833.16 2341.91 1427.65 1978.38 1803.25 1438.51 1416.58 770.052 1005.02 2072.68 1382.93 1162.16 358.125 854.783 1122.51 539.861 531.838 815.009 238.214 810.987 760.172 680.738
internal_count=60112 28658 31454 12979 15679 12323 8994 19131 11516 9629 5844 8047 7303 5849 5759 3150 4072 8376 5623 4759 1463 3469 4563 2198 2177 3303 973 3329 3080 2763
is_linear=0
shrinkage=0.04


Tree=2
num_leaves=31
num_cat=0
split_feature=44 44 44 26 44 70 29 44 51 69 57 58 69 19 67 71 26 70 71 44 47 51 44 69 27 27 71 44 71 68
split_gain=17124.8 1868.74 953.795 233.755 199.55 167.782 131.458 102.387 73.1637 68.6943 64.7209 62.6576 53.3799 53.5048 53.249 48.7549 48.0089 47.7786 42.7266 41.4888 40.9196 38.5532 37.9663 34.0954 30.9982 28.4656 28.3694 28.3038 27.7474 26.7802
threshold=-34.987861633300774 162.26194763183597 -219.83961486816403 -0.091666668653488145 296.52113342285162 1.0000000180025095e-35 -0.46904762089252466 63.770830154418952 1465.451110839844 0.18333333730697635 1.0000000180025095e-35 1.0000000180025095e-35 1.0000000180025095e-35 0.12220010161399843 0.68333333730697643 -0.024404762312769886 -0.37499999999999994 1.0000000180025095e-35 -0.12916667014360425 -284.24073791503901 -120.89490127563475 1438.7738037109377 -87.203319549560533 0.11805555596947671 0.38750000298023229 0.21111111342906955 -0.012500000186264513 -480.44958496093744 -0.065079368650913225 -0.59464287757873524
decision_type=2 2 2 8 2 8 8 2 8 10 10 10 8 10 10 8 10 8 8 2 2 8 2 10 10 10 8 2 10 8
left_child=2 3 6 16 12 9 27 10 -7 14 11 17 29 -14 22 -6 28 -5 -10 -8 24 -9 -4 -20 -19 -25 -23 -1 -2 -3
right_child=1 4 5 7 15 8 19 21 18 -11 -12 -13 13 -15 -16 -17 -18 20 23 -21 -22 26 -24 25 -26 -27 -28 -29 -30 -31
leaf_value=-0.062429895947892514 0.028610822244855224 0.012490491915839338 -0.025195801499071854 0.0056656184629600963 0.07868416660630223 0.015027721285579294 -0.04834493781549621 0.052172991272308331 0.0092399611059494034 -0.045025539802926853 0.061724907617505494 -0.041198604292500746 0.032307626288071864 0.056654158769408637 -0.039188145451511149 0.066528726203475511 0.0068330706008689337 -0.012786643100241619 -0.0085387004622277593 -0.036058040229553209 0.0267356865459695 0.048153117513904532 -0.0040362390133967556 -0.030758839351477222 0.01821779090727842 -0.012401726923409304 0.029065457230729237 -0.054362197237555247 -0.023939938033802472 0.059117573050847499
leaf_weight=1161.2251603603363 17.696329072117805 20.068107739090919 574.1425174921751 291.26332366466522 883.65244269371033 145.89911454916 1301.6355414390564 209.81325861811638 103.51640158891678 430.09157848358154 59.812517777085304 26.88005992770195 318.25636701285839 264.41371886432171 344.38480535149574 1311.5889191925526 277.68254479765892 74.991707742214203 382.3667326271534 664.0266148597002 1118.6156526505947 155.52091823518276 177.65977969765663 363.42749364674091 165.37455186247826 215.17688500881195 626.30116799473763 1735.8160341233015 175.59789703786373 1100.4677678048611
leaf_count=4836 72 81 2364 1185 3546 596 5401 847 422 1780 241 111 1285 1065 1418 5272 1131 305 1566 2744 4533 628 728 1494 671 882 2536 7223 719 4430
internal_value=0.000180733 0.0448566 -0.0415477 0.0222014 0.0634503 -0.0226579 -0.0521786 0.0266933 -0.011536 -0.0314778 0.0208387 0.0193805 0.0531761 0.043356 -0.0261624 0.0714217 -0.003822 0.0203673 -0.0151769 -0.0441943 0.0235182 0.0369482 -0.0201955 -0.0178071 0.00854474 -0.023932 0.0328624 -0.057596 -0.0191288 0.0582825
internal_weight=14697.4 7098 7599.37 3199.55 3898.45 2736.67 4862.7 2728.57 1210.39 1526.28 1736.94 1677.13 1703.21 582.67 1096.19 2195.24 470.977 1650.25 1064.49 1965.66 1358.98 991.635 751.802 960.971 240.366 578.604 781.822 2897.04 193.294 1120.54
internal_count=60112 28658 31454 12979 15679 11250 20204 11057 4960 6290 7046 6805 6861 2350 4510 8818 1922 6694 4364 8145 5509 4011 3092 3942 976 2376 3164 12059 791 4511
is_linear=0
shrinkage=0.04


Tree=3
num_leaves=31
num_cat=0
split_feature=29 27 29 28 42 29 20 27 28 19 47 5 42 70 5 71 70 36 5 58 53 49 57 50 46 42 53 24 69 47
split_gain=9143.08 4291.35 1383.92 909.02 904.955 409.689 316.167 219.446 183.681 174.772 159.483 189.417 131.855 124.569 105.657 81.8768 69.3323 91.1411 67.68 67.3053 59.8148 57.5166 53.0623 45.9843 45.6662 44.7172 41.9038 41.3342 39.2082 36.8789
threshold=-0.15634921193122861 0.43650794029235845 0.21825397014617923 0.70714285969734203 1409.680114746094 -0.46904762089252466 0.056349206715822227 0.73214286565780651 0.47222222387790685 1.0000000180025095e-35 6.9001362323760995 -1.0000000180025095e-35 1243.8447265625002 0.35416667163372045 1.0000000180025095e-35 0.16369047760963443 0.29285715520381933 713.50000000000011 1.0000000180025095e-35 1.0000000180025095e-35 -22.772192955017086 0.059998201206326492 1.0000000180025095e-35 -7.2056198519021553e-07 268.91682434082037 1779.5778808593752 -20.265922546386715 0.55000001192092907 0.52777779102325451 77.516799926757827
decision_type=8 10 8 10 2 10 8 10 10 10 2 2 2 10 2 10 10 10 2 10 10 2 10 2 2 2 10 10 10 2
left_child=5 3 10 4 6 18 -2 9 13 27 20 26 -8 14 19 21 17 -9 -1 22 24 29 -6 -14 -3 -22 -12 -4 -16 -7
right_child=1 2 7 -5 8 15 12 16 -10 -11 11 -13 23 -15 28 -17 -18 -19 -20 -21 25 -23 -24 -25 -26 -27 -28 -29 -30 -31
leaf_value=-0.037776669969508292 0.028790742118998722 0.0010115588977452456 0.023655591248586148 -0.043141748044721526 0.025541672180319629 -0.033694601315710358 -0.042755914506627482 0.062442611561993253 -0.011325646372431712 0.066356826548491232 0.00014964806265569113 -0.025381382519258457 -0.025280392192273911 0.049360758028068191 0.0074733296281537468 -0.039417746616126827 0.075537603797094399 0.028663989266742771 -0.055246495770260008 -0.040749514728551407 0.014798724075269235 -0.0077277674817803144 0.074627652181370074 -0.0054558984147348487 0.038223840320579898 0.042066651484565856 0.029651183192571314 0.041345189157642549 -0.026225010813445936 -0.00043357408465527275
leaf_weight=402.95687068998814 177.11648061871529 222.51281218230724 380.47983053326607 891.00441725552082 1077.1744997948408 376.79245626926422 566.17023855447769 2087.1214836239815 275.94007264077663 370.83400411903858 126.62520495057106 317.99688279628754 471.58105701208115 259.4704909324646 349.58274398744106 520.16627272963524 616.17089995741844 136.14253132045269 2969.9228686839342 23.860333681106567 142.53081615269184 379.86200021207333 36.427963241934776 310.45169499516487 69.165810957551003 296.18813894689083 196.6985809057951 475.43883574008942 65.611669689416885 62.131757184863091
leaf_count=1686 720 907 1536 3716 4351 1560 2367 8369 1133 1486 518 1313 1946 1043 1421 2165 2467 548 12492 99 578 1561 146 1274 280 1194 797 1914 269 256
internal_value=0.000168069 0.021919 0.0458365 -0.00695531 0.0019677 -0.0457279 -0.0214534 0.0575568 0.0190767 0.0434195 0.011094 -0.00346146 -0.0280541 0.0237062 0.0194189 -0.0270077 0.0636647 0.0603742 -0.0531594 0.0257231 0.0238744 -0.0191238 0.0271474 -0.0174105 0.00983571 0.0332079 0.0180973 0.0334817 0.0021481 -0.0289863
internal_weight=14654.1 9942.3 5437.91 4504.39 3613.39 4711.83 1525.32 4066.19 2088.07 1226.75 1371.72 641.321 1348.2 1812.13 1552.66 1338.95 2839.43 2223.26 3372.88 1137.46 730.398 818.786 1113.6 782.033 291.679 438.719 323.324 855.919 415.194 438.924
internal_count=60112 40392 21907 18485 14769 19720 6307 16320 8462 4936 5587 2628 5587 7329 6286 5542 11384 8917 14178 4596 2959 3377 4497 3220 1187 1772 1315 3450 1690 1816
is_linear=0
shrinkage=0.04


Tree=4
num_leaves=31
num_cat=0
split_feature=44 44 44 29 44 71 28 71 44 51 44 37 58 24 60 44 19 71 44 71 71 51 70 68 51 68 44 24 29 39
split_gain=14737.1 1630.1 827.547 197.675 174.371 144.719 105.129 100.661 87.9424 74.1368 66.4175 62.1348 55.3297 53.3537 48.9759 46.5983 43.7831 42.008 41.1123 38.9366 36.8685 38.1049 34.0814 32.7166 29.1158 27.023 24.8179 23.7464 25.1552 23.0016
threshold=-39.809345245361321 162.26194763183597 -238.49698638916013 -0.15634921193122861 307.67845153808599 0.17480158805847171 0.94999998807907116 0.052777778357267387 81.700340270996108 1530.7083740234377 -368.38349914550776 60.500000000000007 199.50000000000003 0.90000000596046459 205.50000000000003 -105.51443099975585 0.09175084158778192 0.052777778357267387 -146.1636047363281 -0.024404762312769886 -0.23273809254169461 1514.6737060546877 0.15476191043853763 -0.25277778506278986 1438.7738037109377 -0.11269841343164443 90.79795074462892 0.63333335518836986 -0.098611112684011445 2.5000000000000004
decision_type=2 2 2 8 2 10 10 10 2 8 2 10 8 10 8 2 10 10 2 8 8 10 10 10 8 10 2 10 8 2
left_child=2 3 7 17 13 6 9 10 11 15 -1 12 -5 16 -14 -4 27 -2 -11 -6 -16 -22 -20 -13 -10 -8 -19 -3 -29 -21
right_child=1 4 5 8 19 -7 25 -9 24 18 -12 23 14 -15 20 -17 -18 26 22 29 21 -23 -24 -25 -26 -27 -28 28 -30 -31
leaf_value=-0.05132602530554476 0.0072544055306820255 0.029127325829403659 -0.0088566477450560798 -0.039215034641385878 0.072871345163316475 -0.040733522842099142 -0.03594000075550037 -0.056165741780341061 0.048864702115854065 -0.028950345640864905 -0.037652017844243824 -0.0057630307786752655 0.071856900766192985 0.057044867732332617 0.074469028659112743 0.015301400767136627 0.05384540372330622 -0.026725307857598173 -0.017340466121063609 0.05690008824078855 0.025656995875047387 0.0087426848970706197 0.0067525384644648188 0.014670522977007118 0.030637217928419964 -0.01935097844596673 0.0085226116772845282 0.014180187215347318 0.048973777317828995 0.067860456835181063
leaf_weight=1091.3115469664335 170.88394981622696 320.53857938945293 424.8177403062582 22.20348297059536 852.69929984211922 576.09491512179375 511.57525511085987 2226.3159045726061 176.17564305663109 414.35114300251007 1185.997680619359 188.84400686621666 33.992096960544586 807.36327309906483 22.148068368434906 182.69046917557716 387.33025118708611 160.9659927636385 464.16478033363819 689.66169336438179 1124.0648453235626 262.95693364739418 117.77794228494167 373.01068253815174 686.93711566925049 226.75165481865406 39.879082173109055 37.921174168586731 269.71265685558319 551.2152089625597
leaf_count=4634 698 1288 1748 93 3412 2425 2136 9502 706 1720 4995 767 136 3231 89 744 1551 667 1914 2759 4531 1066 482 1510 2763 942 165 153 1080 2205
internal_value=0.000156795 0.0410192 -0.0393658 0.0201334 0.0584152 -0.0227729 -0.0183551 -0.0501175 0.0236647 -0.0126052 -0.0442048 0.019112 0.0234483 0.04937 0.0244124 -0.00159182 0.0432682 -0.00732343 -0.0193207 0.0662908 0.0232679 0.0224503 -0.0124643 0.00780264 0.0343578 -0.0308453 -0.0197266 0.0367463 0.0446849 0.0617688
internal_weight=14600.4 7178.5 7421.85 3262.06 3916.44 2918.22 2342.13 4503.63 2890.33 1603.8 2277.31 2027.22 1465.37 1822.87 1443.16 607.508 1015.5 371.729 996.294 2093.58 1409.17 1387.02 581.943 561.855 863.113 738.327 200.845 628.172 307.634 1240.88
internal_count=60112 28870 31242 13191 15679 12111 9686 19131 11661 6608 9629 8192 5915 7303 5822 2492 4072 1530 4116 8376 5686 5597 2396 2277 3469 3078 832 2521 1233 4964
is_linear=0
shrinkage=0.04


Tree=5
num_leaves=31
num_cat=0
split_feature=44 44 44 44 44 25 29 44 71 44 51 60 58 24 20 69 71 37 47 70 71 67 67 66 71 45 71 53 51 71
split_gain=13495.6 1252.14 1050.36 170.826 157.142 154.966 135.997 91.8518 80.1807 74.3652 68.5343 64.4399 63.2637 46.0467 44.1431 41.0246 40.1251 38.7893 36.7396 36.5797 36.5115 36.3373 34.7299 30.7196 27.9704 27.9624 27.8411 26.6367 25.9133 25.5672
threshold=-6.8325970172882071 162.26194763183597 -190.44834899902341 302.05401611328131 -356.24336242675776 0.90000000596046459 -0.15634921193122861 -90.99800872802733 0.078571431338787093 98.531955718994155 1487.7751464843752 210.50000000000003 1.0000000180025095e-35 0.63333335518836986 0.23205128312110904 0.10555555671453477 -0.024404762312769886 60.500000000000007 -190.43249511718747 1.0000000180025095e-35 0.012500000186264517 0.94999998807907116 0.47222222387790685 0.23611111193895343 -0.17480158805847165 149.30854034423831 -0.065079368650913225 -48.818115234374993 1581.1630859375002 1.0000000180025095e-35
decision_type=2 2 2 2 2 10 8 2 10 2 8 8 10 10 8 8 8 10 2 8 8 10 10 10 8 2 8 8 10 10
left_child=2 6 4 13 29 7 -2 15 22 11 -9 -8 17 14 -3 28 -5 18 23 -11 -7 -15 25 -13 -12 -6 -19 -20 -4 -1
right_child=1 3 5 16 8 20 9 10 -10 19 24 12 -14 21 -16 -17 -18 26 27 -21 -22 -23 -24 -25 -26 -27 -28 -29 -30 -31
leaf_value=-0.048876821549970854 -0.0062583778739068001 0.052322257135141784 0.0032505459059162444 0.070159917825206655 -0.042998838266869746 -0.019417109362080232 0.06453689811497626 0.026186257147010249 -0.049020093268928949 0.021462975478302559 0.024934682882015141 -0.01537331894396839 -0.039987220308561992 0.052698372197253977 0.02964926503296297 -0.022353082455204953 0.058977572816709907 0.026931184635041572 0.05314298319180262 0.041550908799900796 -0.035908224306848861 0.014851942615551724 -0.041645454601464869 0.026641834028531639 -0.0067880662736145752 -0.025777955582583528 0.0048303288726057889 0.02390107324806913 -0.019224739810896247 -0.056708862682414346
leaf_weight=1165.8923260867596 262.78786697983742 212.38471481204033 214.75016282498837 858.97857530415058 187.53870131075382 363.45504458248615 50.592279940843582 151.67274871468544 866.51681314408779 210.08684715628624 48.629169702529907 69.10443888604641 28.846826046705246 1108.3352896869183 389.11310608685017 652.31444917619228 1276.2219938784838 120.03699271380901 51.958715826272964 468.45336727797985 525.22246119379997 42.133338779211044 565.30055712163448 46.632571265101433 520.0944319665432 771.42893266677856 379.60550406575203 1222.967930316925 132.85823066532612 1558.1491560637951
leaf_count=5012 1082 850 882 3446 792 1511 203 615 3728 844 197 280 121 4435 1560 2713 5108 483 209 1878 2216 169 2396 188 2136 3257 1536 4920 550 6758
internal_value=-7.71087e-05 0.0410247 -0.0362535 0.0558805 -0.0467884 -0.0156001 0.0211876 -0.00859346 -0.0393046 0.023911 0.00229576 0.0199769 0.0188022 0.0466234 0.0376549 -0.0164386 0.0634762 0.0196994 0.0231339 0.0353314 -0.0291636 0.0513123 -0.0337815 0.00155536 -0.00407559 -0.0291457 0.01014 0.0250928 -0.00533966 -0.0533567
internal_weight=14522.1 6798.24 7723.82 3887.17 5114.83 2609 2911.07 1720.32 2390.79 2648.29 720.396 1969.75 1919.15 1751.97 601.498 999.923 2135.2 1890.31 1390.66 678.54 888.678 1150.47 1524.27 115.737 568.724 958.968 499.642 1274.93 347.608 2724.04
internal_count=60075 27312 32763 15568 21943 10820 11744 7093 10173 10662 2948 7940 7737 7014 2410 4145 8554 7616 5597 2722 3727 4604 6445 468 2333 4049 2019 5129 1432 11770
is_linear=0
shrinkage=0.04


Tree=6
num_leaves=31
num_cat=0
split_feature=44 44 44 26 44 70 71 44 51 69 44 63 58 44 24 71 18 71 71 37 44 20 69 19 51 46 68 24 44 66
split_gain=12504.2 1375.93 790.955 179.222 174.899 149.072 95.2827 75.6463 63.946 62.9854 55.1549 54.8246 56.3403 53.4919 51.1526 43.4525 41.8047 39.2128 38.3927 37.3101 37.2341 35.7439 30.6279 28.2669 27.5888 27.5801 27.3648 26.3794 25.9672 25.8695
threshold=-34.987861633300774 153.14679718017581 -238.49698638916013 -0.091666668653488145 296.52113342285162 1.0000000180025095e-35 0.052777778357267387 98.531955718994155 1532.116638183594 0.18333333730697635 -375.60139465332026 0.94913792610168468 1.0000000180025095e-35 -113.79440689086913 0.90000000596046459 -0.19722222536802289 0.18245838582515719 -0.024404762312769886 -0.14722222834825513 60.500000000000007 -134.61750793457028 0.11677489057183267 1.0000000180025095e-35 0.44722221791744238 1519.184753417969 179.07834625244143 -0.16369047760963437 0.29166667163372045 209.13510894775393 0.13392857462167743
decision_type=2 2 2 8 2 8 10 2 10 10 2 10 10 2 10 8 10 8 8 10 2 8 8 10 8 2 10 10 2 8
left_child=2 3 6 21 14 9 10 11 20 13 -1 12 16 -4 15 -3 19 -6 -10 -5 22 -2 -7 27 -9 -17 -21 -18 -27 -20
right_child=1 4 5 7 17 8 -8 24 18 -11 -12 -13 -14 -15 -16 25 23 -19 29 26 -22 -23 -24 -25 -26 28 -28 -29 -30 -31
leaf_value=-0.048538744546977076 0.014649519882475375 0.056020625851513163 -0.029675345978006723 0.024771344769440838 0.067525601664067528 0.0062154731400778955 -0.053508288680019778 0.044356266414110411 0.0075819202178904616 -0.041015415271860277 -0.035935864638661996 0.058546984558024491 -0.03792220942610966 -0.011446833288570532 0.051778581566846525 0.050765012663018992 -0.0137773016294938 0.05657518225442465 -0.027234250017168182 -0.0013657860218956144 0.009894361452042191 -0.011500650600178615 -0.018464857660541543 0.028383691030001709 0.026577524865282327 0.023101732397353927 0.020442610364362197 0.0095692342108939649 0.038544139057028318 -0.0079664383276473669
leaf_weight=1026.4307469725609 110.07077923417091 179.267134770751 788.62163184583187 1187.9519409388304 869.91977025568485 123.60974816977978 2149.991527274251 262.96566540002823 76.619257405400276 473.07602110505104 1211.247370287776 53.034002885222435 29.082796081900597 382.50961585342884 780.37792365252972 136.39735025167465 106.75715984404087 1312.8497265428305 452.38321140408516 173.28075444698334 268.98706455528736 348.17967875301838 230.42287699878216 86.969497457146645 297.81266589462757 336.44007530808449 196.3999230414629 281.93267421424389 361.35799300670624 147.95636236667633
leaf_count=4476 447 718 3332 4772 3507 508 9461 1053 313 2032 5195 213 123 1588 3126 546 433 5266 1892 702 1098 1433 958 350 1194 1348 792 1137 1447 615
internal_value=-7.8751e-05 0.0377134 -0.0367327 0.0178949 0.0533346 -0.0206942 -0.0474947 0.0218529 -0.0105718 -0.0286974 -0.0417168 0.0183903 0.0173577 -0.0237216 0.044081 0.0381538 0.0181484 0.0609394 -0.0190825 0.0213179 -0.00132416 -0.00521944 -0.00984777 0.00776936 0.0349145 0.0343143 0.0102203 0.0031569 0.0310987 -0.0224856
internal_weight=14442.9 7111.05 7331.86 3134.44 3976.61 2944.19 4387.67 2676.19 1299.98 1644.21 2237.68 2115.41 2062.37 1171.13 1793.84 1013.46 2033.29 2182.77 676.959 1557.63 623.02 458.25 354.033 475.659 560.778 834.195 369.681 388.69 697.798 600.34
internal_count=60075 28607 31468 12649 15958 12336 19132 10769 5384 6952 9671 8522 8309 4920 7185 4059 8186 8773 2820 6266 2564 1880 1466 1920 2247 3341 1494 1570 2795 2507
is_linear=0
shrinkage=0.04


Tree=7
num_leaves=31
num_cat=0
split_feature=29 24 29 28 56 29 24 43 43 43 43 42 42 71 24 42 43 42 5 43 69 58 57 42 66 53 71 5 57 36
split_gain=6856.58 3068.09 986.889 612.563 788.004 351.142 308.952 151.56 141.951 123.763 121.063 112.298 93.9008 84.3702 85.2208 80.3793 78.0549 76.3669 64.7813 63.8587 69.1964 56.973 49.3008 48.8038 48.1718 47.4205 42.6585 38.6552 35.1698 42.1092
threshold=-0.15634921193122861 0.29166667163372045 0.12599206715822223 0.70714285969734203 -1.0000000180025095e-35 -0.45634920895099634 0.55000001192092907 1849.645202636719 1500.0009765625002 1394.4290771484377 1602.5053710937502 1248.0918579101565 1675.7092285156252 -1.0000000180025095e-35 0.70833334326744091 1293.8001098632815 1320.0274047851565 1888.9910278320315 1.0000000180025095e-35 1900.1067504882815 0.15476191043853763 1.0000000180025095e-35 1.0000000180025095e-35 1679.0098876953127 0.26785714924335485 -15.189987182617186 -0.020039683207869526 1.5000000000000002 156.00000000000003 123.50000000000001
decision_type=8 10 8 10 2 10 10 2 2 2 2 2 2 8 10 2 2 2 2 2 10 10 10 2 8 10 8 2 10 10
left_child=5 3 7 4 11 18 9 12 15 -4 13 -2 -3 -8 -15 26 -17 -9 -1 20 -7 22 -18 -12 -13 -19 -6 -11 29 -16
right_child=1 2 6 -5 8 19 10 17 -10 27 23 24 -14 14 28 16 21 25 -20 -21 -22 -23 -24 -25 -26 -27 -28 -29 -30 -31
leaf_value=-0.032778587634474728 -0.039000425036948672 -0.0019085830734423713 0.049853779172565595 -0.037995115009181707 0.019627169711051006 -0.0074052811628153928 0.063575477645142722 -0.028817530087288292 -0.0090173089010340737 0.02810674074344079 0.00042065379776829142 -0.01839116956206464 0.028174005273108663 0.034326619615206118 0.056173517547180973 0.044920153884736157 0.019681591937957394 -0.016624623087545747 -0.049992070746914224 -0.038150375373674911 -0.029149120388206766 -0.038140138554438555 0.066150919334161645 0.037089539188986144 0.011543810583591337 0.019215583993340606 -0.024778252806242091 0.0069354771356968693 0.06535836626209228 0.042800149556274397
leaf_weight=398.85239413380623 492.27246008813381 270.73248128592968 211.38490022718906 857.41134576499462 57.073029026389122 492.68960517644882 928.26030586659908 236.83096832036972 296.35587893426418 211.87953633069992 67.307439729571342 711.59329234063625 429.23838965594769 481.47135332226753 924.89562575519085 237.2011856585741 1166.0466863811016 106.62307199835777 2844.9177822172642 331.97777576744556 446.28320467472076 26.513735860586166 37.71068449318409 423.30729813873768 97.836943432688713 132.43110363185406 87.962452992796898 395.65297155082226 316.07425180077553 635.60236662626266
leaf_count=1737 2147 1111 851 3717 233 2050 3760 1005 1231 851 275 2965 1730 1933 3719 952 4684 437 12640 1430 1910 113 152 1704 396 538 371 1607 1272 2554
internal_value=-7.9999e-05 0.0186461 0.0373978 -0.00795911 6.22832e-05 -0.0408928 0.0457642 0.0046978 0.0164267 0.0234915 0.0505934 -0.0239352 0.0165388 0.0533604 0.0493392 0.021103 0.0239106 -0.0127188 -0.0478755 -0.0230712 -0.0177399 0.0198599 0.0211374 0.0320589 -0.0147729 0.00323012 -0.00730424 0.014319 0.0531909 0.0507264
internal_weight=14354.4 9839.67 5771.69 4067.98 3210.57 4514.72 4595.84 1175.86 1908.86 818.917 3776.92 1301.7 699.971 3286.3 2358.04 1612.51 1467.47 475.885 3243.77 1270.95 938.973 1230.27 1203.76 490.615 809.43 239.054 145.035 607.533 1876.57 1560.5
internal_count=60075 40308 23347 16961 13244 19767 18526 4821 7736 3309 15217 5508 2841 13238 9478 6505 5901 1980 14377 5390 3960 4949 4836 1979 3361 975 604 2458 7545 6273
is_linear=0
shrinkage=0.04


Tree=8
num_leaves=31
num_cat=0
split_feature=44 44 44 26 44 70 71 44 51 71 63 58 44 71 27 44 51 36 71 52 44 44 70 19 57 71 40 52 51 73
split_gain=10825.1 1263.57 669.805 165.947 161.217 136.126 79.6688 68.1481 57.1914 51.5114 50.0262 49.4118 46.5769 46.1157 56.9861 43.8064 38.0258 37.3359 35.9189 35.3195 33.2681 32.7959 28.1552 27.6736 26.9764 25.2072 23.8509 23.8285 23.5862 23.3036
threshold=-44.787855148315423 153.14679718017581 -251.95800018310544 -0.091666668653488145 342.49116516113287 1.0000000180025095e-35 0.052777778357267387 98.531955718994155 1532.116638183594 0.19722222536802295 0.94913792610168468 1.0000000180025095e-35 -119.95439147949217 -0.18730159103870389 0.73214286565780651 -375.60139465332026 1513.1662597656252 125.50000000000001 0.048809524625539787 1529.0994873046877 -146.1636047363281 -134.61750793457028 0.18333333730697635 0.49285714328289038 193.50000000000003 -0.024404762312769886 4.5000000000000009 1504.421569824219 1519.184753417969 0.38750000298023229
decision_type=2 2 2 8 2 8 10 2 10 10 10 10 2 8 10 2 10 10 10 8 2 2 10 10 8 8 2 10 8 10
left_child=2 3 6 18 13 9 15 10 21 12 11 16 29 -3 27 -1 19 -16 -2 26 -10 -7 -22 -18 -19 -6 -5 -15 -9 -4
right_child=1 4 5 7 25 8 -8 28 20 -11 -12 -13 -14 14 17 -17 23 24 -20 -21 22 -23 -24 -25 -26 -27 -28 -29 -30 -31
leaf_value=-0.046236230362371872 0.0055716257042932576 0.055542458272214663 -0.037611520770412681 0.0016951253809604477 0.06474928909603872 -0.0099718014166210404 -0.051564712509312209 0.041003394408819525 -0.029259770658453858 -0.03942514315712322 0.055051849143368456 -0.035038448274331793 -0.012313598073747279 0.02491729829551281 0.051417142841881439 -0.034406680331580682 0.0035987880137519032 0.062954124818254145 -0.015975646464190661 0.022487341864443119 -0.017916997827477067 0.0086086998305070443 0.0073652539926675276 0.02606639457610525 0.034309067477843444 0.05484022686495859 0.039506459217405525 0.040746254952605379 0.024566412559858183 -0.02407694940405284
leaf_weight=998.06006133556366 244.72875413298607 375.59315548837185 328.9110177308321 225.0881637185812 719.80819293856621 401.28229412436485 2014.4982220232487 262.78491216897964 308.61792205274105 493.04437358677387 52.932023465633392 30.290544837713242 372.61474570631981 417.88026262819767 692.63721151649952 1005.4279355555773 476.1643712669611 59.000718295574188 250.46693725883961 1265.0177540183067 277.44795423746109 244.66477237641811 94.475649297237396 107.5210347622633 485.05762478709221 956.66172771155834 30.283122286200523 239.30165246129036 298.16676399111748 533.99995917081833
leaf_count=4476 998 1520 1422 909 2948 1677 9161 1053 1313 2171 214 130 1558 1675 2794 4405 1926 238 1046 5072 1160 998 391 432 1952 3871 122 960 1194 2289
internal_value=-8.07308e-05 0.0344843 -0.0352143 0.0159879 0.0496877 -0.0210978 -0.0459476 0.0198285 -0.0114592 -0.0284944 0.0166387 0.0156861 -0.0241324 0.0427386 0.0401994 -0.0402997 0.0164163 0.0452574 -0.00532685 0.0197481 -0.019551 -0.00293408 -0.0114948 0.00773756 0.0374155 0.0590948 0.00617897 0.0306811 0.0322665 -0.0292358
internal_weight=14262.4 7189.38 7073.04 3243.44 3945.94 3055.06 4017.99 2748.25 1326.49 1728.57 2187.3 2134.36 1235.53 2269.47 1893.88 2003.49 2104.07 1236.7 495.196 1520.39 680.542 645.947 371.924 583.685 544.058 1676.47 255.371 657.182 560.952 862.911
internal_count=60075 29054 31021 13096 15958 12979 18042 11052 5539 7440 8805 8591 5269 9139 7619 8881 8461 4984 2044 6103 2864 2675 1551 2358 2190 6819 1031 2635 2247 3711
is_linear=0
shrinkage=0.04


Tree=9
num_leaves=31
num_cat=0
split_feature=44 44 44 44 26 70 71 44 51 24 69 44 71 63 67 69 20 37 68 51 20 69 71 44 44 51 68 57 39 70
split_gain=10053.7 1181.47 642.194 154.83 152.818 116.903 89.7106 62.9785 52.1948 51.6988 50.9624 50.7041 47.84 46.5503 36.5199 35.8397 34.5008 33.3473 34.1492 31.4017 30.0882 28.9562 28.2573 27.4107 26.2275 24.6502 24.267 23.0213 24.0323 22.955
threshold=-44.787855148315423 153.14679718017581 -238.49698638916013 258.80648803710943 -0.091666668653488145 1.0000000180025095e-35 0.052777778357267387 98.531955718994155 1532.116638183594 0.90000000596046459 0.18333333730697635 -375.60139465332026 -0.026388889178633686 0.94913792610168468 0.61250001192092907 0.41428571939468389 0.11677489057183267 58.500000000000007 -0.16369047760963437 1443.027526855469 0.20047847181558612 1.0000000180025095e-35 -0.14722222834825513 -134.61750793457028 -98.424873352050767 1422.4906005859377 -0.3496031761169433 156.00000000000003 1.5000000000000002 0.26785714924335485
decision_type=2 2 2 2 8 8 10 2 10 10 10 2 8 10 10 10 8 10 10 8 8 8 8 2 2 10 8 10 2 8
left_child=2 4 6 9 16 10 11 13 21 20 14 -1 -5 15 24 17 -2 19 -19 -6 -3 25 -10 -23 -4 -7 -18 28 -14 -9
right_child=1 3 5 12 7 8 -8 29 22 -11 -12 -13 27 -15 -16 -17 26 18 -20 -21 -22 23 -24 -25 -26 -27 -28 -29 -30 -31
leaf_value=-0.045101920711469567 0.013710511107991605 0.042559249820148935 -0.021097263868884199 0.061064763944631499 0.03899501724227155 0.036707424495099943 -0.050088597957632784 0.021349109744059118 0.0054339240252266451 0.045905454353146184 -0.038098979333511529 -0.032790919508756372 0.040112165050664929 0.053114922827889481 -0.031908536020642309 -0.0030370276548610589 -0.02544704088016482 -0.0040692552817932683 0.016453014542815898 0.017897649278786589 0.025405944211708237 -0.016918730357169915 -0.021065985879756749 0.0042983363642831183 -0.0033924326071507684 0.0031500339505165643 -0.0038796643117285485 0.060498142777714009 0.051478429717115123 0.037785765943273854
leaf_weight=982.55036425590515 118.39910492300987 233.03323471546173 538.97142744064331 941.86817561089993 123.48745308816433 45.437115326523781 2043.6369223743677 231.70740695297718 72.568708315491676 630.95843723416328 443.91986012458801 1175.8599769324064 458.31830643117428 52.672894671559334 389.99819239974022 161.98133820295334 125.02553503215313 220.24410238862038 315.68309712409973 1314.0630075037479 549.23314318060875 228.3806716054678 570.66724823415279 169.90428814291954 178.11453452706337 152.8240497559309 251.14953629672527 261.33435095846653 848.91881129145622 328.94528065621853
leaf_count=4476 481 940 2311 3888 495 185 9461 928 297 2554 1974 5195 1857 214 1685 655 523 893 1271 5277 2204 958 2417 694 741 627 1040 1066 3449 1319
internal_value=-8.13446e-05 0.0332115 -0.0342035 0.0479772 0.0153486 -0.0193293 -0.0440822 0.0190316 -0.0101725 0.0373868 -0.0266487 -0.0383951 0.0539389 0.0159668 -0.0220573 0.0150505 -0.00512076 0.0165351 0.0080192 0.0197099 0.0305158 -0.00165004 -0.0180763 -0.00786775 -0.0166996 0.0108407 -0.0110478 0.0496601 0.0474934 0.0309928
internal_weight=14159.9 7167.02 6992.83 3923.66 3243.36 2790.79 4202.05 2748.78 1239.78 1413.22 1551 2158.41 2510.44 2188.13 1107.08 2135.46 494.574 1973.48 535.927 1437.55 782.266 596.546 643.236 398.285 717.086 198.261 376.175 1568.57 1307.24 560.653
internal_count=60075 29054 31021 15958 13096 11889 19132 11052 5178 5698 6711 9671 10260 8805 4737 8591 2044 7936 2164 5772 3144 2464 2714 1652 3052 812 1563 6372 5306 2247
is_linear=0
shrinkage=0.04


Tree=10
num_leaves=31
num_cat=0
split_feature=44 44 44 44 44 28 26 44 69 71 70 44 63 58 51 47 67 2 51 51 36 52 70 51 71 85 48 45 36 69
split_gain=9427.52 885.529 854.413 144.393 132.074 127.175 82.6811 68.3832 68.3761 65.0471 62.1693 45.465 42.5748 52.6483 38.385 36.5401 32.0385 31.8603 31.2513 30.2289 29.878 28.9878 28.9531 26.8448 26.5337 36.0151 24.9335 23.2747 23.0072 22.8494
threshold=-3.2419859170913692 213.88020324707034 -190.44834899902341 98.531955718994155 -360.18820190429682 0.94999998807907116 -0.22500000149011609 342.49116516113287 1.0000000180025095e-35 0.078571431338787093 1.0000000180025095e-35 -109.41281127929686 0.94913792610168468 1.0000000180025095e-35 1443.027526855469 -182.37062072753903 0.47222222387790685 8.5000000000000018 1532.116638183594 1461.406188964844 643.50000000000011 1342.3712158203127 1.0000000180025095e-35 1902.0126953125002 -0.032539684325456612 1516.6528930664065 0.059998990967869766 149.30854034423831 385.50000000000006 1.0000000180025095e-35
decision_type=2 2 2 2 2 10 8 2 8 10 8 2 10 10 10 2 10 2 8 8 8 10 8 10 8 8 2 2 8 8
left_child=2 3 4 6 26 8 -2 19 14 16 21 -10 13 17 -4 -12 23 24 -13 -3 -17 -5 -21 27 -8 28 -1 -6 -26 -7
right_child=1 7 5 10 9 29 12 -9 11 -11 15 18 -14 -15 -16 20 -18 -19 -20 22 -22 -23 -24 -25 25 -27 -28 -29 -30 -31
leaf_value=-0.050439216235498067 -0.015715118003049908 0.054063173120852563 0.026639467614335808 -0.0082590906011715468 -0.038429441322624082 -0.017765527655585894 0.033857953023376311 0.055750962402872438 -0.020928361004713056 -0.043320633968181095 0.017047817345161004 0.0088861215599460794 0.052727229296194347 -0.036875758864581672 -0.00044804877356736348 0.041922181738224061 -0.037061384484942728 -0.00109089493745128 -0.010843993503852045 0.029423113517631157 0.02236146193992402 0.022005953099840821 0.044389242009142571 0.03577054894500336 0.014187123757473195 0.019753217519099645 -0.041830065712068515 -0.022498414604333543 -0.0052078463166783471 -0.031522229742480791
leaf_weight=1673.2252257019281 137.08539773523808 341.436374142766 99.61678372323513 57.892401590943336 182.68120174109936 323.75989128649235 150.85593321919441 1652.8993658721447 547.62923121452332 833.12156894803047 143.77468214929104 180.65453170239925 50.313290506601334 30.276956275105476 523.97569358348846 767.30002303421497 546.28053422272205 155.15090662240982 444.48629380762577 282.87242338061333 149.24121707677841 403.93161022663116 769.27827300131321 11.533125177025793 229.2708273679018 1210.2879680246115 793.50610889494419 745.57128529250622 170.73560032248497 478.97930981218815
leaf_count=7864 571 1395 404 235 807 1375 605 6845 2335 3861 576 737 206 131 2165 3104 2431 628 1854 1143 600 1625 3136 51 926 4848 3694 3272 689 2112
internal_value=-2.67739e-05 0.0343206 -0.0312003 0.0210489 -0.0412267 -0.0127378 0.0143353 0.0502482 -0.00682307 -0.0343738 0.030461 -0.0125137 0.0163982 0.0154592 0.00387909 0.0357961 -0.029358 0.0162861 -0.00514234 0.0437216 0.0387371 0.018212 0.0403656 -0.0248801 0.0178169 0.0163142 -0.0476698 -0.0256337 0.00590873 -0.0259739
internal_weight=14087.6 6702.6 7385.02 3656.12 4785.92 2599.1 2133.98 3046.49 1796.36 2319.19 1522.14 1172.77 1996.89 1946.58 623.592 1060.32 1486.07 1916.3 625.141 1393.59 916.541 461.824 1052.15 939.786 1761.15 1610.29 2466.73 928.252 400.006 802.739
internal_count=60225 27263 32962 14744 21980 10982 8604 12519 7495 10422 6140 4926 8033 7827 2569 4280 6561 7696 2591 5674 3704 1860 4279 4130 7068 6463 11558 4079 1615 3487
is_linear=0
shrinkage=0.04


Tree=11
num_leaves=31
num_cat=0
split_feature=29 27 29 28 5 24 29 43 43 28 43 42 43 42 36 42 24 49 58 5 70 53 26 70 57 3 69 5 20 16
split_gain=5323.71 2113.02 1062.08 469.181 542.592 208.395 177.82 145.487 130.775 116.093 107.872 89.2086 85.953 73.6589 69.4161 67.3277 55.2189 52.6357 52.2625 42.2932 39.7714 39.7339 39.3043 35.1773 37.8707 34.6237 33.1821 27.2885 26.5932 25.651
threshold=-0.22678571194410321 0.35416667163372045 0.12599206715822223 0.70714285969734203 1.0000000180025095e-35 0.55000001192092907 -0.56190475821495045 1420.5236816406252 1849.645202636719 0.31666667759418493 1484.070007324219 1243.8447265625002 1410.6750488281252 1675.7092285156252 665.50000000000011 1893.7871093750002 0.77500000596046459 0.05999873764812947 1.0000000180025095e-35 1.0000000180025095e-35 0.18333333730697635 -15.189987182617186 0.058333335444331176 0.86607143282890331 1.0000000180025095e-35 4.5000000000000009 1.0000000180025095e-35 1.0000000180025095e-35 -0.14226190745830533 0.47722567617893225
decision_type=8 10 8 10 2 10 10 2 2 10 2 2 2 2 10 2 10 2 10 2 8 10 10 10 10 2 10 2 8 10
left_child=6 3 8 4 9 12 19 22 13 18 -7 -9 -4 -3 16 -10 -12 27 23 -1 -18 -17 28 24 -2 -19 -13 -8 -6 -5
right_child=1 2 5 29 7 10 17 11 15 -11 14 26 -14 -15 -16 21 20 25 -20 -21 -22 -23 -24 -25 -26 -27 -28 -29 -30 -31
leaf_value=-0.030926446779542507 0.019180273085022643 -0.0040925913237604928 0.043098155494303375 -0.023773955225804059 0.024025917684261943 0.054578779402770873 -0.021251509992767238 -0.03480564844045634 -0.026923590264080751 -0.0047292225285596309 0.029955780763420439 -0.0019227638895546212 0.012645578021110035 0.020221855269375026 0.015513950158334866 -0.016991365208844884 0.032841326122228995 -0.010529932257945539 -0.036087344239968393 -0.047481461373308047 0.047711243071350204 0.013416613532073136 0.032091785866692958 0.04485763836120437 0.06003224615593921 -0.031405048727601033 -0.01852506143011512 -0.037922494286103704 -0.016875634056528466 -0.038754913970800428
leaf_weight=277.28126245737076 1208.2986136525869 322.07435083389282 205.98988889157772 278.48233687877655 39.709255397319794 1162.300637319684 204.56664948165417 485.43446038663387 298.89843222498894 346.16244867444038 506.49188385903835 272.85267722606659 529.49088360369205 523.16889479756355 174.44287088513374 120.50455838441849 356.14747230708599 343.90763758122921 25.021965771913528 2253.8723952174187 1499.3780621439219 160.10476265847683 104.00758720934391 101.85008193552494 37.432334423065186 201.67696312069893 654.98639592528343 677.05927270650864 70.747472584247589 532.64287486672401
leaf_count=1277 4855 1341 847 1251 162 4864 899 2226 1311 1439 2047 1135 2134 2124 710 501 1451 1488 109 10747 6174 656 424 412 155 905 2774 3082 302 2423
internal_value=-2.87334e-05 0.0154912 0.0309673 -0.00631803 0.000297361 0.0406208 -0.0393017 -0.0162534 0.000922572 0.0159715 0.0444876 -0.0209118 0.0211746 0.010957 0.0398635 -0.0137132 0.0416618 -0.0280114 0.0211922 -0.0456679 0.0448571 0.000358245 0.014445 0.0222557 0.0204078 -0.0182465 -0.0136428 -0.0340543 -0.0021715 -0.0336115
internal_weight=13975 10016.6 5858.99 4157.63 3346.5 4434.24 3958.36 1627.74 1424.75 1718.77 3698.76 1413.27 735.481 845.243 2536.46 579.508 2362.02 1427.21 1372.6 2531.15 1855.53 280.609 214.464 1347.58 1245.73 545.585 927.839 881.626 110.457 811.125
internal_count=60225 41827 24160 17667 13993 18227 18398 7023 5933 6970 15246 6135 2981 3465 10382 2468 9672 6374 5531 12024 7625 1157 888 5422 5010 2393 3909 3981 464 3674
is_linear=0
shrinkage=0.04


Tree=12
num_leaves=31
num_cat=0
split_feature=44 44 44 44 71 71 29 28 71 51 63 58 37 24 71 57 36 26 48 36 3 37 44 12 70 51 44 44 44 71
split_gain=8193.44 976.055 585.974 134.415 125.411 110.097 84.3567 74.2119 57.9493 49.4174 45.8065 46.4749 43.597 42.1997 39.188 41.8637 40.1497 38.6429 34.7436 28.8701 28.2952 26.5748 26.4583 26.3992 25.7505 25.1668 23.7655 21.6289 21.1313 21.0796
threshold=-39.809345245361321 162.26194763183597 -238.49698638916013 342.49116516113287 0.098611112684011473 0.16369047760963443 -0.47638888657093043 0.94999998807907116 -0.073214288800954805 1530.7083740234377 0.98546481132507335 1.0000000180025095e-35 47.500000000000007 0.45000000298023229 -0.18730159103870389 1.0000000180025095e-35 123.50000000000001 -0.2583333402872085 0.059998990967869766 82.500000000000014 1.0000000180025095e-35 55.500000000000007 -146.1636047363281 14.500000000000002 0.18333333730697635 1885.8197021484377 31.261717796325687 -105.51443099975585 50.327369689941413 -0.024404762312769886
decision_type=2 2 2 2 10 10 8 10 8 8 10 10 10 8 8 10 8 10 2 8 2 8 2 2 10 10 2 2 2 8
left_child=2 4 6 14 8 7 18 9 -2 27 11 12 13 23 -3 16 20 -6 -1 -15 -16 -18 25 -10 -24 -11 -14 -4 -19 -5
right_child=1 3 5 29 17 -7 -8 -9 10 22 -12 -13 26 19 15 -17 21 28 -20 -21 -22 -23 24 -25 -26 -27 -28 -29 -30 -31
leaf_value=-0.049036340377425221 0.032048544156868738 0.04959966724349827 -0.0045398857570155948 0.058025466195829524 -0.023190301389437257 -0.033175477909388441 -0.034026228888187661 -0.024384635832997128 0.013471618113467341 -0.023817724911016195 0.049998434524070393 -0.031643980402265702 -0.0027811309936416778 0.034290443070385174 0.046598540651751855 0.055354022386964234 0.043054913186245942 -0.0093761338940220491 -0.038597718200929325 0.018734993770578183 0.031577884283807547 0.023880346281219943 -0.012788533084314933 -0.010858923817107055 0.008579479028793727 0.034353761223521587 0.012333135993414216 0.011973673558335757 0.0131011378666932 0.048804185507009434
leaf_weight=1682.102270051837 367.49126946926117 357.28670740127563 408.02779069542885 696.783716365695 142.97100183367729 557.50082688033581 1599.5299973338842 674.30996884405613 206.42476241290569 384.07300585508347 58.596683338284492 34.859165459871292 272.37955740094185 227.61684840917587 430.76030945777893 149.47181721031666 138.79274094104767 126.12420530617237 732.24210675060749 1183.3876202404499 375.63609819114208 693.51470828056335 454.22069385647774 109.04427464306355 112.60592691600323 12.279930248856543 428.02109231054783 184.18899628520012 142.56332536041737 920.81176742911339
leaf_count=8233 1480 1491 1707 2996 611 2538 7403 2973 830 1666 242 152 1107 916 1783 619 564 517 3532 4742 1529 2825 1917 441 463 53 1724 746 576 3849
internal_value=-3.03974e-05 0.0301457 -0.0313666 0.0440699 0.0142652 -0.0172767 -0.0411505 -0.0133015 0.0172096 -0.0084966 0.0150459 0.0142139 0.0148726 0.0182873 0.0375056 0.0350891 0.0332407 -0.00638966 -0.0458704 0.0212443 0.0396016 0.0270778 -0.0140873 0.00506158 -0.00854356 -0.0220154 0.00645533 0.000596098 0.00255012 0.0527763
internal_weight=13863.6 7062.54 6801.08 3763.06 3299.48 2787.21 4013.87 2229.71 2887.82 1555.4 2520.33 2461.73 2426.87 1726.47 2145.46 1788.18 1638.7 411.659 2414.34 1411 806.396 832.307 963.18 315.469 566.827 396.353 700.401 592.217 268.688 1617.6
internal_count=60225 28994 31231 15656 13338 12063 19168 9525 11634 6552 10154 9912 9760 6929 8811 7320 6701 1704 11765 5658 3312 3389 4099 1271 2380 1719 2831 2453 1093 6845
is_linear=0
shrinkage=0.04


Tree=13
num_leaves=31
num_cat=0
split_feature=44 44 44 44 28 71 18 71 71 71 44 63 37 29 24 26 36 12 86 26 71 57 44 37 44 47 43 71 67 88
split_gain=7621.82 919.672 565.399 130.179 120.451 115.601 67.8667 61.6377 53.5387 46.2697 43.8929 42.8253 40.7319 38.7181 38.6757 35.8586 34.6163 34.4176 30.0749 28.148 27.6214 28.6476 27.5254 24.3341 22.6497 21.2252 21.0335 20.9759 20.0953 19.5557
threshold=-39.809345245361321 162.26194763183597 -277.56567382812494 342.49116516113287 0.73214286565780651 0.098611112684011473 0.015749008394777778 1.0000000180025095e-35 -0.073214288800954805 0.17301587760448459 -109.41281127929686 0.98546481132507335 48.500000000000007 -0.10912698507308959 0.63333335518836986 -0.2583333402872085 123.50000000000001 14.500000000000002 -232.84629058837888 -0.37499999999999994 -0.19722222536802289 1.0000000180025095e-35 -430.09915161132807 55.500000000000007 31.261717796325687 -190.43249511718747 1795.9155273437502 -0.024404762312769886 0.23611111193895343 271.89862060546881
decision_type=2 2 2 2 10 10 10 10 8 10 2 10 10 8 10 10 8 2 8 10 8 10 2 8 2 2 2 8 8 10
left_child=2 5 7 13 6 8 18 22 -2 19 29 12 14 -3 17 -7 25 -10 -4 -6 -18 23 -1 -22 -14 -15 -21 -5 -26 -8
right_child=1 3 4 27 9 15 10 -9 11 -11 -12 -13 24 16 -16 -17 20 -19 -20 26 21 -23 -24 -25 28 -27 -28 -29 -30 -31
leaf_value=-0.043121588502980458 0.030803628989281771 0.0058911277331624937 0.042788213916454723 0.056626230021385393 -0.027601191733280576 -0.022395700081636667 -0.021289124969507776 -0.04722620366438867 0.016318185596583511 -0.038105635754250258 -0.0050525876865413896 0.048383318859561208 -0.0034196694025768514 0.025002987866277557 0.030724548527950649 0.0024486201745722407 0.045853024940383603 -0.0045996481992633875 -0.0030510108004657955 0.0012630289088429543 0.042577797230075307 0.053612397242913432 -0.032420618371368198 0.023823523939850655 0.02014403432977115 0.04443187806792253 -0.019446471218314818 0.047364193017587465 0.0028202524636364809 -0.04890855699911021
leaf_weight=615.12884424626827 367.05791482329369 65.213546335697174 23.755300208926201 685.66599532961845 715.72370512783527 142.13900619745255 719.35402728617191 1746.968194887042 1343.8141749948263 420.67162002623081 311.87149269878864 58.139843434095383 275.71017365157604 99.869328886270523 273.70040218532085 268.60954594612122 192.55470082163811 138.85889491438866 636.61196599900723 100.50558863580227 132.83344314992428 70.146406412124634 1026.2353400588036 664.24894793331623 209.28452242910862 907.1834545135498 357.86409266293049 911.05243423581123 219.4956823438406 43.497277155518532
leaf_count=3001 1480 262 98 2996 3240 611 3164 8739 5394 1997 1311 242 1123 407 1107 1093 811 561 2679 426 543 293 4825 2716 842 3779 1556 3849 885 195
internal_value=-3.17822e-05 0.0290969 -0.0304933 0.0427051 -0.0187877 0.0137058 -0.0114942 -0.0419968 0.0165315 -0.0267231 -0.0176953 0.0144518 0.0136502 0.0362372 0.0169094 -0.00614872 0.0371947 0.0143591 -0.00140204 -0.0226448 0.0321485 0.0291056 -0.036431 0.0269489 0.0055246 0.0425051 -0.0149056 0.0513415 0.0112759 -0.022864
internal_weight=13743.8 7025.58 6718.19 3728.77 3329.86 3296.81 1735.09 3388.33 2886.06 1594.77 1074.72 2519 2460.86 2132.05 1756.37 410.749 2066.84 1482.67 660.367 1174.09 1059.78 867.229 1641.36 797.082 704.49 1007.05 458.37 1596.72 428.78 762.851
internal_count=60225 28994 31231 15656 14666 13338 7447 16565 11634 7219 4670 10154 9912 8811 7062 1704 8549 5955 2777 5222 4363 3552 7826 3259 2850 4186 1982 6845 1727 3359
is_linear=0
shrinkage=0.04


Tree=14
num_leaves=31
num_cat=0
split_feature=44 44 44 44 28 26 44 44 68 70 37 58 69 69 47 63 37 36 53 18 51 12 68 70 51 66 46 44 72 53
split_gain=7091.82 868.423 544.939 157.063 113.505 82.8181 63.9485 59.9721 58.4734 46.5792 44.5033 45.1089 39.0912 37.0573 34.0046 33.4458 31.1304 30.0844 27.9703 31.2327 27.7634 25.8619 25.7986 25.6904 25.5998 25.202 24.4115 23.6695 24.3956 23.5443
threshold=-39.809345245361321 213.88020324707034 -277.56567382812494 94.732192993164077 0.73214286565780651 -0.37499999999999994 -166.8059387207031 342.49116516113287 0.16369047760963443 1.0000000180025095e-35 60.500000000000007 1.0000000180025095e-35 0.26785714924335485 0.58571431040763866 -131.42943572998044 1.0000000180025095e-35 120.50000000000001 510.50000000000006 -83.190795898437486 0.11715686321258546 1461.406188964844 14.500000000000002 -0.20734126865863797 1.0000000180025095e-35 1401.4145507812502 0.26785714924335485 179.07834625244143 -528.21505737304676 0.94999998807907116 107.10519790649415
decision_type=2 2 2 2 10 8 2 2 8 8 10 10 10 10 2 10 10 8 8 10 8 2 10 8 8 10 2 2 10 8
left_child=2 3 8 5 6 -2 21 20 27 26 11 15 16 24 -11 18 -6 -16 -7 -20 -3 -4 -12 -22 -8 -21 -5 -1 -29 -28
right_child=1 7 4 9 12 10 13 -9 -10 14 22 -13 -14 -15 17 -17 -18 -19 19 25 23 -23 -24 -25 -26 -27 29 28 -30 -31
leaf_value=-0.050573132394514629 -0.017884314909148883 0.04860690523181934 -0.01685647758462748 0.033299017770708511 -0.028107804254368939 0.044588846054042286 0.025537736323663338 0.049991654691177036 -0.032539100841044173 0.019309626323653448 -0.0063330910663570404 -0.041084808641871688 -0.039078143491767414 -0.019559469694567202 0.039301739492711353 0.054797952160891603 -0.015464495306156619 0.020312959332611426 0.017524124448347653 -0.0056687612184059665 0.024902251381477173 -0.036474500726931362 0.0092631049185743393 0.039133467840891507 -0.0030430137308529461 0.017022129809628375 0.020403278140119475 -0.044481994084829647 -0.033188454029458095 0.00039669239161391797
leaf_weight=698.41594550013542 160.72664661705494 330.16623525321484 521.37537778913975 99.53323233127594 756.35035724937916 51.009058892726898 53.514763429760933 1574.6942797154188 925.79353374242783 302.81602653861046 264.47214645147324 22.190764889121056 293.46190072596073 223.14192901551723 605.16230061650276 35.379690259695053 529.88394878804684 171.27899624407291 1165.7553893625736 193.71627925336361 278.53024163842201 135.44640854001045 473.55886659026146 748.02737386524677 795.81568031013012 131.46516169607639 200.95809602737427 1302.5210878551006 400.02272279560566 177.01884977519512
leaf_count=3582 687 1395 2318 402 3414 206 217 6845 4442 1227 1078 99 1419 964 2503 152 2386 696 4670 784 1143 610 1913 3136 3338 528 813 6590 1951 717
internal_value=-3.29865e-05 0.0280945 -0.0296471 0.016104 -0.0181536 0.00988971 -0.011073 0.0446811 -0.0410792 0.0260766 0.0117994 0.0155484 -0.0259048 -0.00505334 0.0306789 0.0163452 -0.0228992 0.0351129 0.0154629 0.0144664 0.0385173 -0.020902 0.00367423 0.0352722 -0.00124219 0.00350477 0.0156746 -0.0443722 -0.0418285 0.0110335
internal_weight=13622.2 6986.46 6635.74 4055.04 3308.99 2498.27 1729.29 2931.42 3326.75 1556.77 2337.55 1599.52 1579.7 1072.47 1079.26 1577.33 1286.23 776.441 1541.95 1490.94 1356.72 656.822 738.031 1026.56 849.33 325.181 477.51 2400.96 1702.54 377.977
internal_count=60225 28994 31231 16475 14666 10117 7447 12519 16565 6358 9430 6439 7219 4519 4426 6340 5800 3199 6188 5982 5674 2928 2991 4279 3555 1312 1932 12123 8541 1530
is_linear=0
shrinkage=0.04


Tree=15
num_leaves=31
num_cat=0
split_feature=44 44 44 28 44 28 24 29 69 18 24 70 38 69 58 57 44 70 36 18 27 45 69 70 51 51 28 44 67 52
split_gain=6654.97 875.234 501.283 120.082 110.358 98.4645 69.4969 58.4525 54.3759 49.9853 42.8164 38.6316 35.2718 34.8568 34.4829 33.6091 31.9432 31.2251 29.3945 26.5983 26.1292 25.4529 25.104 22.426 22.4206 21.8449 21.6749 20.7049 20.244 19.341
threshold=-53.471265792846673 162.26194763183597 -262.79585266113276 0.94999998807907116 258.80648803710943 0.73214286565780651 0.45000000298023229 -0.47638888657093043 1.0000000180025095e-35 0.021054964512586597 0.90000000596046459 1.0000000180025095e-35 112.50000000000001 0.18333333730697635 1.0000000180025095e-35 1.0000000180025095e-35 -109.41281127929686 0.26785714924335485 427.50000000000006 1.0000000180025095e-35 0.52777779102325451 250.92623138427737 1.0000000180025095e-35 0.26785714924335485 1433.8756103515627 1538.9699707031252 0.94999998807907116 81.700340270996108 0.64583334326744091 1504.421569824219
decision_type=2 2 2 10 2 10 10 8 10 10 10 10 8 10 10 10 2 10 10 10 10 2 10 10 8 10 10 2 10 8
left_child=2 3 7 6 10 9 8 19 14 24 26 21 20 28 15 -2 25 -10 27 -1 -5 22 -6 -20 -4 -11 -3 -8 -7 -26
right_child=1 4 5 12 11 13 18 -9 17 16 -12 -13 -14 -15 -16 -17 -18 -19 23 -21 -22 -23 -24 -25 29 -27 -28 -29 -30 -31
leaf_value=-0.036136423173396992 0.014503441074362832 0.026098090461711021 0.020869955886360089 -0.026107298843969416 0.045304072395328542 -0.0168300429858343 0.020149080379786976 -0.033178760357616216 -0.006386150224559798 -0.01258108801325172 0.038925131024113324 0.051384213167367493 -0.027056949556837046 -0.035630098070029752 -0.031790971004998052 0.054766010694233078 -0.0040791907012391482 0.016017111036338717 0.0030244672661841211 -0.046458776326792454 0.0036708378319628455 0.021197594031832585 0.031260711478099133 0.047092176106277472 -0.016708839697077926 -0.026810594678811306 -0.0023243793806441751 0.03204539245622081 -0.028233821855150488 0.00035615376070730824
leaf_weight=527.84511494636536 1249.2895673662424 667.16758307814598 63.598373800516129 55.379984259605408 1027.7777178585529 620.89887602627277 491.89405822753906 1283.8867527544498 386.64288242161274 303.54945278167725 577.0374661386013 991.63981236517429 104.46611516177654 375.37366572022438 25.074929758906364 34.07696445286274 252.1025741994381 134.052794277668 158.80023710429668 1641.4572325050831 317.1204400062561 96.292865008115768 254.00065939128399 20.909865766763687 145.42848205566406 400.20523945987225 45.881603389978409 446.61845095455647 415.90561039745808 394.58977472782135
leaf_count=2643 5015 2744 260 245 4421 2778 1982 6224 1578 1325 2436 4410 433 1823 113 147 1065 543 641 8598 1308 409 1075 85 621 1797 184 1815 1900 1662
internal_value=-9.82618e-05 0.0266386 -0.0295787 0.0121034 0.0402386 -0.0175344 0.0151167 -0.0399435 0.0103142 -0.0106056 0.0308246 0.0453636 -0.00651672 -0.0251859 0.0146649 0.0155725 -0.0162965 -0.000618444 0.0229724 -0.0439471 -0.000756305 0.0410312 0.0425212 0.00815189 -0.00159391 -0.020673 0.0242692 0.0258103 -0.0214046 -0.0042395
internal_weight=13509 7084.12 6424.84 3424.33 3659.8 2971.65 2947.36 3453.19 1829.14 1559.47 1290.09 2369.71 476.967 1412.18 1308.44 1283.37 955.857 520.696 1118.22 2169.3 372.5 1378.07 1281.78 179.71 603.617 703.755 713.049 938.513 1036.8 540.018
internal_count=60280 29584 30696 13905 15679 13231 11919 17465 7396 6730 5364 10315 1986 6501 5275 5162 4187 2121 4523 11241 1553 5905 5496 726 2543 3122 2928 3797 4678 2283
is_linear=0
shrinkage=0.04


Tree=16
num_leaves=31
num_cat=0
split_feature=44 44 44 28 44 28 71 69 18 71 71 36 58 44 44 36 44 46 57 71 31 57 29 84 40 51 87 24 20 51
split_gain=6196.15 826.894 483.584 110.774 108.59 92.6986 71.743 65.2143 46.4784 44.2797 38.3519 37.5097 30.6376 30.8445 29.8503 29.5266 29.5126 27.4426 29.5099 27.437 27.055 26.9991 24.0388 21.2141 20.8834 20.5721 20.3987 20.2823 22.1157 19.2167
threshold=-53.471265792846673 162.26194763183597 -262.79585266113276 0.94999998807907116 342.49116516113287 0.73214286565780651 0.092063494026660933 1.0000000180025095e-35 0.021054964512586597 0.26825398206710821 0.17301587760448459 123.50000000000001 1.0000000180025095e-35 -1.0000000180025095e-35 -109.41281127929686 597.50000000000011 -496.64802551269526 176.53030395507815 1.0000000180025095e-35 -0.024404762312769886 1.0000000180025095e-35 1.0000000180025095e-35 -0.048809524625539773 1307.776306152344 4.5000000000000009 1538.9699707031252 111.14796066284181 0.63333335518836986 0.083683475852012648 1387.5015258789065
decision_type=2 2 2 10 2 10 10 8 10 10 10 8 10 2 2 8 2 2 10 8 10 10 8 8 2 10 8 10 8 8
left_child=2 3 6 7 11 8 16 -2 23 12 26 22 13 -9 25 20 -1 -13 29 -6 -5 24 -3 -4 -15 -10 -7 28 -24 -19
right_child=1 4 5 15 19 10 -8 9 14 -11 -12 17 -14 21 -16 -17 -18 18 -20 -21 -22 -23 27 -25 -26 -27 -28 -29 -30 -31
leaf_value=-0.044008822545681885 0.023332853401294824 0.010736621683460594 0.020706827187551916 0.011277057656106317 0.053372162600000932 -0.01133331593870319 -0.044967607497701935 -3.5659610753814045e-05 -0.012121772956481407 -0.012936061330390131 -0.03569438418639212 0.040229779702782853 -0.028172646564931458 0.01290868108016207 -0.0039194738177755449 -0.039151479319899034 -0.030747909552545975 0.042338871116465497 0.048654113270407182 0.042544331400679355 -0.010080792819393232 0.045142093063872249 0.044556125302806018 -0.0040620111972863885 0.036866456263008884 -0.025970821898806326 -0.023936086515004111 0.043498528256669736 0.020770666077670887 0.020281473808049292
leaf_weight=333.38175641000271 923.48607005178928 47.117837980389595 61.621840968728065 139.51875285804272 651.01241375505924 281.79941390454769 1675.8065498769283 263.80173815786839 302.47171521186829 121.22618763148785 358.44140037894249 227.87554940581322 29.899560689926147 1500.1799909174442 251.8851281106472 40.014956697821617 1380.2197673916817 69.452319741249084 74.359374150633812 881.33586674928665 296.71387492120266 45.364876627922058 105.27503602206707 541.57404580712318 60.564282387495041 396.69233471155167 758.8398135304451 708.42944718897343 154.09850649535656 701.55874758958817
leaf_count=1726 3741 191 253 580 2995 1259 8943 1076 1325 501 1772 960 134 6028 1065 167 6796 297 320 3863 1239 195 450 2290 244 1797 3470 3047 633 2923
internal_value=-9.72089e-05 0.0257337 -0.028773 0.0116317 0.0390577 -0.0169408 -0.0390828 0.0145265 -0.0102172 0.0105026 -0.0244101 0.0331235 0.0119982 0.0126405 -0.015726 -0.00626648 -0.0333278 0.0279101 0.0245893 0.0471445 -0.00324999 0.0147225 0.0386364 -0.00153165 0.0138384 -0.0199795 -0.0205233 0.0399947 0.0304248 0.0222684
internal_weight=13384 7041.29 6342.73 3420.77 3620.52 2953.33 3389.41 2944.52 1554.25 2021.04 1399.08 2088.17 1899.81 1869.91 951.049 476.248 1713.6 1073.25 845.37 1532.35 436.233 1606.11 1014.92 603.196 1560.74 699.164 1040.64 967.803 259.374 771.011
internal_count=60280 29584 30696 13905 15679 13231 17465 11919 6730 8178 6501 8821 7677 7543 4187 1986 8522 4500 3540 6858 1819 6467 4321 2543 6272 3122 4729 4130 1083 3220
is_linear=0
shrinkage=0.04


Tree=17
num_leaves=31
num_cat=0
split_feature=29 24 29 28 56 29 24 43 25 43 43 3 69 71 43 43 71 42 5 69 53 57 36 88 57 24 58 84 47 31
split_gain=3541.76 1542.32 538.918 306.502 385.548 247.628 174.896 108.851 77.4159 75.4259 74.4123 70.1871 63.59 63.425 63.1053 57.0024 48.8864 40.1995 39.6265 35.9523 35.4438 33.2991 32.905 31.6961 30.9599 27.5834 26.582 25.9312 25.2976 24.7204
threshold=-0.15634921193122861 0.29166667163372045 0.1361111178994179 0.70714285969734203 -1.0000000180025095e-35 -0.56190475821495045 0.63333335518836986 1428.974304199219 0.45000000298023229 1844.201599121094 1614.0940551757815 9.5000000000000018 1.0000000180025095e-35 0.098611112684011473 1320.0274047851565 1918.428161621094 -0.17480158805847165 1679.0098876953127 1.0000000180025095e-35 1.0000000180025095e-35 -7.7435016632080069 156.00000000000003 123.50000000000001 24.708389282226566 1.0000000180025095e-35 0.45000000298023229 182.50000000000003 1854.0428466796877 18.711635589599613 0.36666667461395269
decision_type=8 10 8 10 2 10 10 2 10 2 2 2 10 10 2 2 8 2 2 10 10 10 10 10 10 10 8 10 2 10
left_child=5 3 9 4 11 18 7 -4 13 17 16 19 15 14 -6 -7 -8 -3 -1 -2 -11 22 -18 -14 26 -9 -16 -25 -22 -5
right_child=1 2 6 29 8 12 10 25 -10 20 -12 -13 23 -15 24 -17 21 -19 -20 -21 28 -23 -24 27 -26 -27 -28 -29 -30 -31
leaf_value=-0.025702323999185244 0.00019568382861716175 -0.00046776329305419577 0.038911278009210432 -0.017548753455039767 0.035822079215354671 -0.0039717718298457032 0.051580179536581054 0.0060803316984921665 -0.010169883927416808 -0.019747906574992077 0.023060097554211012 -0.032691878901461566 -0.011288164892409185 -0.010767307946433992 -0.035648599053691464 -0.031621176920039185 0.041170170218052214 0.01910024738553643 -0.042513086762190434 -0.017351864431408192 0.017257355686201372 0.050817910115344651 0.029685745562340909 -0.030861430898374821 0.050909814449149667 0.019918435897054849 0.01274218801809008 0.017828155028337893 -0.0098339116161685874 -0.033265099018668962
leaf_weight=252.70105047523975 275.80918191373348 279.71688690781593 412.82961182296276 227.15846626460552 230.669817969203 498.22746723890305 598.76619946956635 386.0710122436285 241.49454179406166 249.68305487930775 401.58029627799988 362.60040870308876 179.06800583004951 149.16195258498192 18.44185896217823 156.86036555469036 931.99446487426758 420.48813045024872 1999.8936585485935 578.98183833062649 99.107190236449242 296.81265027821064 698.22870191931725 821.87700925767422 33.639318019151688 571.83353139460087 1200.1797873973846 17.882119566202164 124.33924067020416 542.67303219437599
leaf_count=1267 1167 1166 1805 1077 969 2179 2764 1585 1022 1108 1680 1731 819 641 84 746 4059 1731 10733 2603 409 1319 2991 3989 149 2348 4855 80 543 2661
internal_value=-9.60502e-05 0.0133139 0.0269736 -0.00604429 -0.000419751 -0.0319679 0.0335327 0.021741 0.0109678 0.00294669 0.0390541 -0.0179454 -0.0203151 0.0140954 0.0165963 -0.0105924 0.041597 0.0112832 -0.0406272 -0.0116899 -0.00939094 0.038495 0.0362514 -0.0265667 0.0130548 0.0143412 0.0120099 -0.0298246 0.00218212 -0.0286276
internal_weight=13258.8 9332.26 5471.45 3860.81 3090.98 3926.51 4298.12 1370.73 1873.59 1173.33 2927.38 1217.39 1673.91 1632.09 1482.93 655.088 2525.8 700.205 2252.59 854.791 473.129 1927.04 1630.22 1018.83 1252.26 957.905 1218.62 839.759 223.446 769.831
internal_count=60280 40467 23508 16959 13221 19813 18551 5738 7720 4957 12813 5501 7813 6698 6057 2925 11133 2897 12000 3770 2060 8369 7050 4888 5088 3933 4939 4069 952 3738
is_linear=0
shrinkage=0.04


Tree=18
num_leaves=31
num_cat=0
split_feature=44 44 44 44 28 71 71 51 69 71 24 28 71 38 43 44 52 71 58 44 57 48 27 44 86 84 40 70 52 70
split_gain=5411.92 742.32 453.631 104.768 94.4853 83.3534 70.7031 58.8618 56.3517 38.7518 35.3148 34.2144 32.2696 31.7807 31.7556 28.7935 27.7806 27.3952 26.8869 26.4436 24.0186 23.1775 23.0657 23.0475 21.3596 20.0152 19.3777 18.2402 20.6314 17.7898
threshold=-53.471265792846673 162.26194763183597 -262.79585266113276 342.49116516113287 0.94999998807907116 0.087301589548587813 0.092063494026660933 1538.9699707031252 1.0000000180025095e-35 0.26825398206710821 0.90000000596046459 0.70714285969734203 -0.18730159103870389 112.50000000000001 1810.518005371094 -421.00990295410151 1459.4154052734377 -0.024404762312769886 1.0000000180025095e-35 -1.0000000180025095e-35 1.0000000180025095e-35 0.059997918084263809 0.52777779102325451 258.80648803710943 -196.41159057617185 1702.0938110351565 4.5000000000000009 0.29285715520381933 1672.0974731445315 0.73214286565780651
decision_type=2 2 2 2 10 10 10 8 8 10 10 8 8 8 2 2 10 8 10 2 10 2 10 2 8 10 2 10 10 10
left_child=2 4 6 10 8 7 15 14 27 18 12 -9 -3 22 24 -1 -7 -5 19 -10 26 -18 -6 -14 -4 -12 29 28 -2 -21
right_child=1 3 5 17 13 16 -8 11 9 -11 25 -13 23 -15 -16 -17 21 -19 -20 20 -22 -23 -24 -25 -26 -27 -28 -29 -30 -31
leaf_value=-0.038627516900591234 0.022025270547634444 0.039964859897934371 0.021156381258814517 0.051399608313507129 -0.024349816425072283 -0.03802938625389396 -0.043529233895226276 -0.0061680340266906343 -8.2365431588005553e-06 -0.012235474434411947 0.037944019162264205 -0.020684943562009735 0.018321234742696754 -0.025356919833535274 -0.021674655677623337 -0.027733156374558282 -0.029935465967440674 0.04040301727892915 -0.026788493661815432 0.01101590193031895 0.04270013673810541 -0.012818134904730091 0.0038463938765158378 0.031559239514687761 -0.0022221760418838915 0.0015202057167988461 0.035048194567990236 0.038539990445261393 0.0018604700088080276 0.032401680480141713
leaf_weight=616.10716001689434 736.422302916646 225.28733021020889 69.698924347758293 626.80368331074715 54.398976072669029 253.60567511618137 1604.7956772595644 350.79724457859993 263.46873439848423 120.72420448064804 889.52257017791271 1001.0198039710522 587.19254368543625 103.50283236801624 126.15203987061977 1049.1421987861395 266.86279480159283 859.5426140576601 29.443643137812614 1433.2595930397511 44.326893717050552 240.7422077357769 316.48192718625069 327.9490209966898 607.78452008962631 24.811795890331268 60.427042901515961 92.402671203017235 91.24058510363102 65.061173394322395
leaf_count=3280 2993 998 296 2995 245 1271 8943 1502 1076 501 3893 4579 2425 433 563 5242 1277 3863 134 5763 195 1153 1308 1399 2590 106 244 379 369 265
internal_value=-9.46889e-05 0.0241224 -0.0273084 0.0369508 0.0108052 -0.0158397 -0.0375378 -0.0118212 0.0134808 0.00973829 0.0310991 -0.0169178 0.0264037 -0.00575864 -0.00324815 -0.0317638 -0.0272185 0.0450404 0.0111374 0.0117357 0.0136658 -0.0218172 -0.000289287 0.0230652 0.00018299 0.0369556 0.0128402 0.0216842 0.0198023 0.0119445
internal_weight=13139 6952.27 6186.71 3541.11 3411.16 2916.66 3270.05 2155.45 2936.78 2016.71 2054.76 1351.82 1140.43 474.384 803.635 1665.25 761.211 1486.35 1895.99 1866.54 1603.07 507.605 370.881 915.142 677.483 914.334 1558.75 920.066 827.663 1498.32
internal_count=60280 29584 30696 15679 13905 13231 17465 9530 11919 8178 8821 6081 4822 1986 3449 8522 3701 6858 7677 7543 6467 2430 1553 3824 2886 3999 6272 3741 3362 6028
is_linear=0
shrinkage=0.04


Tree=19
num_leaves=31
num_cat=0
split_feature=44 44 44 44 71 71 71 51 71 24 28 51 60 28 40 38 20 43 44 58 52 2 36 39 48 56 44 86 28 75
split_gain=5040.75 703.04 437.877 120.153 87.2705 78.815 70.1489 54.8554 45.5931 37.6119 36.5552 40.0305 32.7393 32.0649 31.6219 30.5459 30.4217 29.5019 28.4931 28.1692 26.7386 23.7784 23.5077 22.283 21.9364 21.6242 20.538 19.6077 19.159 17.7405
threshold=-53.471265792846673 142.75322723388675 -262.79585266113276 258.80648803710943 0.076388891786336913 0.087301589548587813 0.092063494026660933 1538.9699707031252 -0.024404762312769886 0.90000000596046459 0.94999998807907116 1425.3060302734377 1.0000000180025095e-35 0.70714285969734203 4.5000000000000009 111.50000000000001 0.21583850681781772 1810.518005371094 -502.79940795898432 1.0000000180025095e-35 1459.4154052734377 10.500000000000002 230.50000000000003 1.5000000000000002 0.059997918084263809 1.0000000180025095e-35 45.703500747680671 -196.41159057617185 0.70714285969734203 1.0000000180025095e-35
decision_type=2 2 2 2 10 10 10 8 8 10 10 8 10 8 2 8 8 2 2 10 10 2 10 2 2 2 2 8 10 10
left_child=2 4 6 9 10 7 18 17 -5 16 11 -2 14 -9 19 -12 -3 27 -1 21 -7 25 -18 29 -22 -13 -6 -4 -11 -10
right_child=1 3 5 8 26 20 -8 13 23 28 15 12 -14 -15 -16 -17 22 -19 -20 -21 24 -23 -24 -25 -26 -27 -28 -29 -30 -31
leaf_value=-0.042145616116524683 0.029545362299915005 0.032713782146657933 0.020223527566060655 0.048479180808532141 -0.014781380996767787 -0.037151993665684543 -0.042799317889965098 -0.0059304512255574813 0.026847486365262449 0.036933246258132803 0.0064519272937112685 0.013241851197681034 0.045814908402410488 -0.020005062710678045 0.032134289079158634 -0.023084051966311425 0.019760547654347555 -0.020952991478016828 -0.02848022827714838 -0.027600132447869158 -0.029092217488325016 -0.0061796649225542124 -0.0004657089742262619 0.040249385719178361 -0.012369598373233759 -0.0018214917762512009 0.0032427176750319366 -0.0021343746439025989 0.017733564319916829 0.0505917152236319
leaf_weight=298.41592645645142 232.1879116743803 243.27252078056335 69.991218253970146 825.43462029099464 247.64864684641361 249.29903900623322 1567.6331681609154 350.2676664441824 424.52668870985508 511.25697004795074 214.12269979715347 1788.1402383297682 45.181789517402649 993.78741662204266 111.97503973543644 75.875863522291183 487.93788740038872 125.29476235806942 1341.9268052875996 30.88398315012455 263.67930348217487 122.92994564771652 113.28431698679924 937.24115951359272 239.51827013492584 166.69644582271576 170.99272254109383 607.48174813389778 99.311355084180832 57.120672911405563
leaf_count=1641 957 1038 296 3964 1060 1271 8943 1502 1868 2251 875 7207 201 4579 453 314 2015 563 6881 141 1277 498 466 4221 1153 673 705 2590 415 262
internal_value=-9.34579e-05 0.0233178 -0.0265664 0.0351999 0.00960969 -0.0153002 -0.0367487 -0.0113957 0.0410044 0.026247 0.0121668 0.0137274 0.0121064 -0.0163371 0.0114206 -0.00127593 0.0207787 -0.00312223 -0.0309663 0.0103206 -0.0264396 0.0108843 0.0159494 0.0366559 -0.0211324 0.0119573 -0.0074195 0.000175469 0.0338103 0.0296634
internal_weight=13013.3 6906.02 6107.3 3699.39 3206.64 2899.32 3207.98 2146.82 2244.32 1455.06 2787.99 2498 2265.81 1344.06 2220.63 289.999 844.495 802.768 1640.34 2108.65 752.497 2077.77 601.222 1418.89 503.198 1954.84 418.641 677.473 610.568 481.647
internal_count=60280 29584 30696 16500 13084 13231 17465 9530 10315 6185 11319 10130 9173 6081 8972 1189 3519 3449 8522 8519 3701 8378 2481 6351 2430 7880 1765 2886 2666 2130
is_linear=0
shrinkage=0.04


Tree=20
num_leaves=31
num_cat=0
split_feature=44 44 44 44 71 68 71 71 51 14 71 52 69 44 39 4 71 51 44 18 56 57 58 27 46 52 63 58 24 36
split_gain=4690.23 665.447 410.689 119.843 79.8006 72.4175 60.2891 58.2532 48.4013 38.87 35.7501 36.3275 35.6752 33.0129 31.779 30.677 26.6925 25.1863 24.6379 23.3473 23.8584 22.904 22.4731 21.6702 20.1675 19.6721 19.6056 27.1597 19.3532 18.5818
threshold=-53.471265792846673 213.88020324707034 -277.56567382812494 94.732192993164077 0.17480158805847171 -0.20734126865863797 -0.026388889178633686 0.092063494026660933 1540.5171508789065 16.500000000000004 -0.17480158805847165 1418.848571777344 1.0000000180025095e-35 -430.09915161132807 1.5000000000000002 1.0000000180025095e-35 0.15972222387790683 1911.7174072265627 -205.29911041259763 0.66190478205680858 1.0000000180025095e-35 1.0000000180025095e-35 165.50000000000003 0.76388889551162731 172.76135253906253 1463.4512329101565 0.99127969145774852 1.0000000180025095e-35 1.0000000180025095e-35 491.50000000000006
decision_type=2 2 2 2 10 8 8 10 8 2 8 8 8 2 2 2 10 10 2 10 2 10 10 10 2 10 10 10 10 10
left_child=2 3 7 5 8 16 -3 13 18 19 -5 -12 29 -1 21 -10 -2 22 -4 20 26 -8 -17 -16 -14 -6 27 -7 -11 -13
right_child=1 6 4 10 25 9 14 -9 15 28 11 12 24 -15 23 17 -18 -19 -20 -21 -22 -23 -24 -25 -26 -27 -28 -29 -30 -31
leaf_value=-0.038627337929036616 -0.0044192261658190209 0.046464710753574688 -0.015983339482447918 0.038504624336175297 -0.037772658750463733 0.014110656618304716 0.023847910838744657 -0.042042387328583126 -0.020660427554362638 -0.033893665743711589 -0.0026967092052214707 0.029154958541024532 0.030780876772387909 -0.026314889599346684 0.026910187847204822 -0.0084197072674000312 -0.032360002850105915 0.03780159589807057 -0.00098842593373546462 -0.00034184676011252265 -0.0016741832889496623 0.047322174539572118 -0.046414289821095682 0.040463986690727143 0.0096486468457574835 -0.02282962070845887 0.042703039778743332 -0.033829510892463568 -0.0013473318470898937 0.0072862460703983917
leaf_weight=550.45357045531273 222.2968538403511 903.75976671278477 237.62862311303616 175.16325378417969 229.21791453659534 1671.0475243926048 562.00270774960518 1468.0369635373354 1008.832705706358 35.620223075151443 110.34679253399372 645.15164577960968 86.981600910425186 949.36249086260796 236.53037302196026 480.8748010545969 72.562716782093048 17.968142360448837 668.64668253064156 243.59362241625786 165.92476204037666 75.429994866251945 26.26870396733284 934.09903827309608 426.84214386343956 366.08444511890411 37.781173586845398 19.124381139874458 163.01633836328983 68.796274617314339
leaf_count=3049 917 4384 1098 755 1211 6749 2464 8590 4712 148 453 2748 357 4896 1024 2128 322 79 2844 996 675 350 120 4265 1742 1831 171 90 670 286
internal_value=1.84477e-05 0.0226235 -0.0257974 0.0125429 -0.0154525 0.00738416 0.0380289 -0.036378 -0.0122492 0.00974184 0.0215118 0.0192874 0.0212633 -0.0308337 0.0338122 -0.0165793 -0.0112952 -0.0087388 -0.00492015 0.0113147 0.012814 0.0266257 -0.0103877 0.0377254 0.013226 -0.0285834 0.0142052 0.0135682 -0.00718366 0.0270477
internal_weight=12859.4 6856.07 6003.38 4144.25 3035.52 2630.97 2711.82 2967.85 2440.22 2336.11 1513.28 1338.12 1227.77 1499.82 1808.06 1533.94 294.86 525.112 906.275 2137.47 1893.88 637.433 507.144 1170.63 513.824 595.302 1727.95 1690.17 198.637 713.948
internal_count=60124 29566 30558 17079 14023 10738 12487 16535 10981 9499 6341 5586 5133 7945 8103 7039 1239 2327 3942 8681 7685 2814 2248 5289 2099 3042 7010 6839 818 3034
is_linear=0
shrinkage=0.04


Tree=21
num_leaves=31
num_cat=0
split_feature=44 44 44 44 71 71 68 44 51 44 70 71 52 67 66 71 71 47 63 58 52 51 71 50 47 40 27 48 68 37
split_gain=4368.82 632.624 397.188 111.554 75.8046 68.8027 66.8257 60.5803 46.9471 43.3527 35.1331 33.762 33.7229 32.8131 26.8623 24.9823 24.7852 24.6645 20.6905 22.9319 19.8188 19.1299 18.9569 21.8825 21.2773 21.1774 19.2793 18.1423 19.2658 17.3127
threshold=-53.471265792846673 213.88020324707034 -238.49698638916013 94.732192993164077 0.052777778357267387 0.084523811936378493 -0.20734126865863797 406.94914245605474 1599.2071533203127 -375.60139465332026 1.0000000180025095e-35 -0.17480158805847165 1418.848571777344 0.61250001192092907 0.61250001192092907 0.15972222387790683 0.25634922087192541 -186.12993621826169 0.94913792610168468 1.0000000180025095e-35 1457.8944091796877 1471.6191406250002 -0.10357142984867095 -2.9072214147163318e-06 1.0494830012321474 4.5000000000000009 0.35416667163372045 0.059997638687491424 0.19722222536802295 28.500000000000004
decision_type=2 2 2 2 10 10 8 2 8 2 8 8 8 8 10 10 10 2 10 10 10 8 8 2 2 2 8 2 10 8
left_child=2 3 4 6 9 8 15 10 -4 -1 21 -5 -13 -10 29 -2 18 -12 19 22 -7 -3 -8 26 -25 -26 -24 -6 -29 -14
right_child=1 7 5 11 27 20 16 -9 13 -11 17 12 14 -15 -16 -17 -18 -19 -20 -21 -22 -23 23 24 25 -27 -28 28 -30 -31
leaf_value=-0.035412190981781173 -0.0042446972894652794 0.037040560740100731 -0.0027038940116453588 0.037352391259642966 -0.044167450844083751 -0.034792358774945714 0.022638351184070475 0.045027649634251564 -0.0083837096310242932 -0.022992450510186918 0.020370037715169959 -0.0025886843034278297 0.037462727710670739 -0.023244892648492228 0.031705023830646065 -0.031377306859142112 -0.012347339424599398 0.037897205761305897 0.036406515859937351 -0.027431084311110507 -0.019573591588966641 0.017901197709824665 -0.019909842034968758 0.012649150423740228 -0.0030515086277771862 0.023993352459182646 0.0047905402736850193 -0.036685175630115772 0.0036132555466050248 0.015920010608897587
leaf_weight=796.47309179604053 222.18192426860332 112.06915085017681 920.503895804286 173.38037584722042 882.10336348414421 200.91749019920826 175.48250976204872 968.18544392287731 506.01375102996826 1032.812442407012 145.09984081983566 110.35332599282265 63.971723228693008 448.3413205742836 267.43512310087681 71.856353476643562 81.236608609557152 1120.2021188139915 46.988424494862556 26.460616543889046 429.76905515789986 328.4122960716486 70.204587683081627 1418.6625737994909 279.13975310325623 55.543727770447731 180.68215076625347 690.54613344371319 19.517994925379753 891.28979644179344
leaf_count=4442 917 503 3962 755 5274 1046 712 4724 2265 5212 638 453 265 2074 1157 322 343 5196 213 124 2087 1426 288 5726 1131 224 738 4084 112 3711
internal_value=1.64426e-05 0.0218744 -0.0250936 0.0120695 -0.0339547 -0.0129933 0.00709555 0.0370361 -0.00914888 -0.0284 0.0325002 0.020748 0.0185884 -0.0153653 0.0204997 -0.0108753 0.00935914 0.0358873 0.0101418 0.00958235 -0.0244218 0.0227707 0.0100317 0.00892789 0.0105089 0.00143683 -0.00212126 -0.0403365 -0.0355775 0.0173627
internal_weight=12735.8 6808.84 5927 4134.87 3421.45 2505.55 2628.44 2673.97 1874.86 1829.29 1705.78 1506.43 1333.05 954.355 1222.7 294.038 2334.4 1265.3 2253.16 2206.18 630.687 440.481 2179.72 2004.23 1753.35 334.683 250.887 1592.17 710.064 955.262
internal_count=60124 29566 30558 17079 19124 11434 10738 12487 8301 9654 7763 6341 5586 4339 5133 1239 9499 5834 9156 8943 3133 1929 8819 8107 7081 1355 1026 9470 4196 3976
is_linear=0
shrinkage=0.04


Tree=22
num_leaves=31
num_cat=0
split_feature=29 24 29 25 56 29 24 67 43 25 3 43 18 19 67 53 73 37 57 36 51 48 42 42 36 58 36 20 22 38
split_gain=2583.8 1011.53 529.817 224.312 261.999 145.485 144.351 99.1555 93.0426 60.9578 59.3169 57.5128 54.1119 45.2608 42.2121 41.0303 40.2824 46.6326 34.1876 34.1684 32.0254 30.7914 28.4765 28.3603 27.8627 26.8727 26.1626 36.3695 25.0176 24.6754
threshold=-0.22678571194410321 0.29166667163372045 0.14365079998970035 0.90000000596046459 -1.0000000180025095e-35 -0.64444443583488453 0.63333335518836986 0.23611111193895343 1433.1577148437502 0.45000000298023229 4.5000000000000009 1818.742370605469 1.0000000180025095e-35 1.0000000180025095e-35 0.41428571939468389 215.82386016845706 0.43650794029235845 80.500000000000014 156.00000000000003 123.50000000000001 1911.7174072265627 0.059998894110322006 1549.0991821289065 1136.0562133789065 364.50000000000006 1.0000000180025095e-35 188.50000000000003 0.42956349253654486 0.45643940567970281 -604.49999999999989
decision_type=8 10 8 10 2 10 10 10 2 10 2 2 10 10 10 10 8 10 10 10 10 2 2 2 10 10 10 8 10 10
left_child=5 3 11 4 12 21 8 16 -4 13 14 22 -2 18 20 -13 -6 25 19 -8 -7 -1 -3 -14 -11 -18 -24 -28 -5 -16
right_child=1 2 6 28 7 10 9 -9 -10 24 -12 15 23 -15 29 -17 17 -19 -20 -21 -22 -23 26 -25 -26 -27 27 -29 -30 -31
leaf_value=-0.042030076955715305 -0.00096779078900446436 -0.010182546125042281 0.034728779366681686 -0.035287514805877718 0.026188134908026607 -0.0090311379419139356 0.036134717192615233 -0.012281655545753719 0.011386170129346933 0.027161204016162208 -0.031272837723657264 -0.012235149333250586 -0.035610771994329521 0.046009201423703766 0.033327085663064249 0.018086778038516577 0.013948490090671409 -0.0035146411646634112 0.046387621504554437 0.02336046569985133 0.03856853104119598 -0.030880085525856044 0.017419060591898426 -0.01734577201822737 0.0050565895783993989 -0.032116011485645996 0.022153996634225792 -0.0091477454565518385 -0.018579367571697751 -0.025007481404736819
leaf_weight=1163.1074961423874 293.30891074240208 118.26710146665573 387.00157563388348 323.89453761279583 257.3988416492939 442.70695999264717 824.99115799367428 331.92689727246761 929.22525371611118 318.0845363587141 595.73000301420689 545.37405128777027 167.40889777243137 640.74799244105816 11.900505840778349 82.158471718430519 1086.4806390106678 358.19346326589584 274.8361614048481 564.0985996723175 23.833064898848534 601.0662756562233 411.06162169575691 725.34111052751541 127.93493838608265 20.647828549146652 89.281209707260132 177.39811944961548 257.28550831973553 462.53502506017685
leaf_count=7017 1271 511 1791 1700 1105 2120 3796 1517 3863 1402 3190 2457 930 3208 53 350 4451 1544 1314 2513 107 3454 1722 3337 543 100 372 744 1298 2344
internal_value=1.45466e-05 0.0107931 0.0217922 -0.00500793 -0.000904162 -0.0303937 0.0291436 0.00773704 0.0182494 0.0343565 -0.021396 0.000789889 -0.0158736 0.036976 -0.015143 -0.00826531 0.0115942 0.00903059 0.0334975 0.0309472 -0.00659952 -0.0382312 0.00792855 -0.0207708 0.0208208 0.0130894 0.011089 0.00133172 -0.0278909 -0.0235442
internal_weight=12613.2 9312.35 5490.46 3821.89 3240.71 3300.88 4066.92 2054.65 1316.23 2750.69 1536.71 1423.54 1186.06 2304.67 940.976 627.533 1722.72 1465.32 1663.93 1389.09 466.54 1764.17 796.008 892.75 446.019 1107.13 677.741 266.679 581.18 474.436
internal_count=60124 41839 24586 17253 14255 18285 18430 8717 5654 12776 7814 6156 5538 10831 4624 2807 7200 6095 7623 6309 2227 10471 3349 4267 1945 4551 2838 1116 2998 2397
is_linear=0
shrinkage=0.04


Tree=23
num_leaves=31
num_cat=0
split_feature=44 44 44 44 44 44 68 68 70 14 70 12 52 69 48 69 19 20 31 47 22 18 60 58 68 56 31 18 51 86
split_gain=3818.69 577.599 373.227 97.7568 66.4692 59.161 58.2987 51.9726 38.8742 32.9871 32.7134 30.9101 29.6859 28.8119 28.4459 26.241 28.1872 25.5612 24.1925 23.2085 21.7276 20.7231 21.374 23.2687 20.2307 18.3458 18.1321 17.9599 17.9394 17.7809
threshold=-53.471265792846673 213.88020324707034 -277.56567382812494 94.732192993164077 -162.86851501464841 406.94914245605474 -0.20734126865863797 0.19246032088994983 1.0000000180025095e-35 16.500000000000004 1.0000000180025095e-35 14.500000000000002 1337.689147949219 0.52777779102325451 0.059998894110322006 1.0000000180025095e-35 0.10960961133241655 -0.31649830937385554 0.77500000596046459 -186.12993621826169 0.33809524774551397 0.66190478205680858 162.50000000000003 1.0000000180025095e-35 -0.4319444447755813 1.0000000180025095e-35 0.36666667461395269 0.27386364340782171 1471.6191406250002 -242.42571258544919
decision_type=2 2 2 2 2 2 8 8 8 2 8 2 8 10 2 8 10 8 10 2 8 10 10 10 8 2 8 10 8 8
left_child=2 3 7 6 11 10 17 14 20 21 28 18 -5 -10 -1 24 -17 -2 29 -12 -6 22 23 25 -14 -8 -9 -19 -3 -4
right_child=1 5 4 12 8 -7 9 26 13 -11 19 -13 15 -15 -16 16 -18 27 -20 -21 -22 -23 -24 -25 -26 -27 -28 -29 -30 -31
leaf_value=-0.041072035511252242 0.030925477335730367 0.035317016090923088 0.0087483172037775732 -0.0069821047476085587 -0.022451247943836315 0.043343031403703818 0.012650365578071355 -0.012714727325916473 0.0025039687504701553 -0.0069598676594772226 0.018954413307698644 -0.031935261845983616 -0.001704823700106297 -0.015646921032889484 -0.030827246728254029 0.0074607136254063169 0.025542746593531819 -0.0053879200286620701 -0.028423885492416513 0.036082114613324612 -0.0090794863188975103 -0.00087622405648977932 0.040047472622533206 -0.028160145467709643 0.026596090939067979 -0.0015732099290169908 -0.028507132175973608 -0.026509328789479418 0.0166088434268011 -0.015573609190087755
leaf_weight=1347.9094036370516 22.245755091309547 109.70191831886768 51.090109065175056 65.376012876629829 323.94301131367683 933.81738474965096 1663.7335065156221 140.4778697937727 582.15311805903912 197.8805136680603 143.2072869092226 289.30390757322311 42.586848333477974 184.19929872453213 639.32515232264996 373.30631911754608 218.77117010951042 164.02001176774502 242.85352376103401 1090.3057494163513 486.29033386707306 243.21874459087849 41.132579252123833 24.091292604804039 791.99474081397057 158.95235735177994 676.56202703714371 106.06860737502575 324.87675733864307 819.6626590937376
leaf_count=8321 90 503 239 270 1568 4724 6734 762 2459 818 638 1483 176 823 3771 1529 924 679 1247 5196 2253 996 191 116 3442 644 3681 470 1426 3951
internal_value=1.27775e-05 0.0205316 -0.0238107 0.0112014 -0.0139529 0.0352816 0.0065492 -0.0342844 -0.00831712 0.0086626 0.0307688 -0.0202864 0.0193749 -0.00185875 -0.0377761 0.0205827 0.014142 -0.0102881 -0.0172601 0.0340936 -0.0144257 0.0101132 0.0115289 0.0108938 0.025152 0.01141 -0.0257919 -0.0136827 0.0213314 -0.0141466
internal_weight=12499.1 6715.29 5783.77 4113.38 2979.5 2601.91 2621.34 2804.27 1576.59 2329.01 1668.09 1402.91 1492.04 766.352 1987.23 1426.66 592.077 292.334 1113.61 1233.51 810.233 2131.13 1887.91 1846.78 834.582 1822.69 817.04 270.089 434.579 870.753
internal_count=60124 29566 30558 17079 14023 12487 10738 16535 7103 9499 7763 6920 6341 3282 12092 6071 2453 1239 5437 5834 3821 8681 7685 7494 3618 7378 4443 1149 1929 4190
is_linear=0
shrinkage=0.04


Tree=24
num_leaves=31
num_cat=0
split_feature=44 44 44 44 71 71 71 67 44 51 18 44 70 71 39 71 14 39 57 20 58 57 69 52 48 5 12 67 52 18
split_gain=3556.92 549.517 360.231 94.684 68.5311 60.981 58.1992 54.1077 40.7048 37.8468 33.2263 31.8738 31.1642 30.8845 30.4742 30.4653 31.0333 29.3389 27.1978 24.184 22.933 25.2443 21.93 18.3272 18.5831 18.2733 17.9144 22.6865 17.7776 16.0528
threshold=-53.471265792846673 219.56449890136722 -277.56567382812494 94.732192993164077 0.17480158805847171 -0.026388889178633686 0.092063494026660933 0.41428571939468389 -166.8059387207031 1599.2071533203127 0.056470900774002082 -430.09915161132807 0.15476191043853763 -0.032539684325456612 2.5000000000000004 -0.2652777880430221 5.5000000000000009 1.0000000180025095e-35 156.00000000000003 0.46770833432674414 1.0000000180025095e-35 1.0000000180025095e-35 0.5634920895099641 1463.4512329101565 0.059997567906975753 1.0000000180025095e-35 13.500000000000002 0.73214286565780651 1557.5788574218752 0.3357843160629273
decision_type=2 2 2 2 10 8 10 10 2 8 10 2 10 8 2 8 2 2 10 8 10 10 8 10 2 2 2 10 10 8
left_child=2 3 6 7 8 -3 11 10 26 -10 20 -1 -11 -9 18 -5 17 28 25 -12 21 -2 -21 -6 -25 -7 27 -4 -17 -15
right_child=1 5 4 15 23 14 -8 13 9 12 19 -13 -14 29 -16 16 -18 -19 -20 22 -22 -23 -24 24 -26 -27 -28 -29 -30 -31
leaf_value=-0.035905445276903335 0.01181314095298263 0.043499940000304667 -0.011387978097620268 0.037313422034983515 -0.035173615344552565 0.026574888322584558 -0.039551871307047418 0.021944358928164594 0.00070573823548842143 -0.015961463524286783 0.013046943847893441 -0.023386965208407138 0.0082581134123154397 0.0021743446842843049 0.036898588076692315 0.0046299395639005612 0.0088922423279335482 0.026201247604823643 0.041871924025327897 -0.0005022473515313323 -0.024155560328573439 0.044116192236192397 -0.027191325735347795 -0.03093959104767726 -0.012376907982076009 0.01323024453084189 -0.028146293499302907 -0.029829493752699707 0.027050401638086887 -0.016301210883118852
leaf_weight=509.47317059338093 1477.932713970542 827.78531435132027 712.72891165316105 130.2856847345829 215.18856264650822 656.3729303330183 1339.4163553565741 52.070999190211296 677.26547700166702 603.13163641095161 195.10163058340549 900.82400400936604 98.950562208890915 105.71721708774567 666.69452354311943 207.25230757892132 483.75840355455875 633.99258403480053 146.2506514787674 403.16746142506599 27.564738139510155 39.748691275715828 56.115878120064735 151.34722378849983 200.73858435451984 218.94761024415493 177.2457247376442 125.53036662936211 77.837033689022064 261.0443000793457
leaf_count=3049 5975 4333 3364 586 1211 3040 8590 211 2898 2795 796 4896 416 446 3189 863 2001 2780 724 1653 131 188 236 802 1029 987 870 638 325 1102
internal_value=1.11782e-05 0.019856 -0.0231545 0.0109165 -0.013476 0.0346067 -0.0335805 0.00629417 -0.0105149 -0.00604035 0.00880324 -0.0279093 -0.012548 -0.00688296 0.0302462 0.018811 0.0170926 0.0214088 0.0259048 0.00124869 0.0120025 0.0126592 -0.00376316 -0.025977 -0.0203562 0.0232369 -0.0165926 -0.0141496 0.0107513 -0.0109757
internal_weight=12379.5 6667.64 5711.84 4151.59 2962.13 2516.05 2749.71 2618.46 2394.85 1379.35 2199.63 1410.3 702.082 418.833 1688.27 1533.13 1402.84 919.082 1021.57 654.385 1545.25 1517.68 459.283 567.274 352.086 875.321 1015.51 838.259 285.089 366.762
internal_count=60124 29566 30558 17293 14023 12273 16535 10738 10981 6109 8979 7945 3211 1759 7940 6555 5969 3968 4751 2685 6294 6163 1889 3042 1831 4027 4872 4002 1188 1548
is_linear=0
shrinkage=0.04


Tree=25
num_leaves=31
num_cat=0
split_feature=44 44 44 44 71 70 16 71 70 18 47 51 57 48 67 86 44 36 57 35 39 44 66 71 37 27 13 36 4 50
split_gain=3301.79 593.141 273.529 106.2 64.4378 54.2018 52.5031 51.9261 43.8316 38.5947 38.2168 36.3274 30.539 30.2107 29.1082 28.1714 27.0788 25.6898 25.0187 24.6585 24.5068 23.758 23.5096 22.5919 22.5544 21.8228 18.8311 19.6389 18.0425 16.87
threshold=-87.203319549560533 213.88020324707034 -284.24073791503901 50.327369689941413 -0.18730159103870389 1.0000000180025095e-35 0.66228070855140697 0.098611112684011473 0.10555555671453477 0.021054964512586597 -142.57094573974607 1513.1662597656252 156.00000000000003 0.059991909191012389 0.41428571939468389 -232.84629058837888 399.95077514648443 651.50000000000011 162.50000000000003 -0.2563492208719253 1.5000000000000002 -496.64802551269526 0.41428571939468389 -0.081349208950996385 120.50000000000001 0.21111111342906955 10.500000000000002 252.50000000000003 2.5000000000000004 -2.9707208568652273e-06
decision_type=2 2 2 2 8 8 10 10 8 10 2 10 10 2 10 8 2 10 10 8 2 2 10 8 10 10 2 8 2 2
left_child=2 3 7 6 -3 13 11 21 19 -7 22 18 16 -4 15 -15 20 -12 -2 -5 28 -1 -10 -8 -16 -11 27 -21 -6 -13
right_child=1 4 5 8 12 9 23 -9 10 25 17 29 -14 14 24 -17 -18 -19 -20 26 -22 -23 -24 -25 -26 -27 -28 -29 -30 -31
leaf_value=-0.038221168241998248 0.0088213794271968602 0.04363817719313106 -0.038683485205742038 -0.0049070571241360906 0.010333328847190385 0.0015377057420894464 0.015492935248581351 -0.039028917523148084 0.0031867682518147674 -0.018547295151152724 0.026775432347706671 -0.011049552748366403 0.042482506140116783 0.012516509834266044 -0.029163447031004628 -0.014880792058343195 0.035600834648427802 0.0033566798585928578 0.042444186616746066 0.015058297787163144 0.02864993200582162 -0.025030724711604061 0.027196296753198186 -0.013908538065124185 -0.014789091977550236 -0.0037541661590774844 0.028431348313610036 -0.002477579811405966 0.027300764685144953 0.0026094681017889837
leaf_weight=275.33851155638695 1375.6183359920979 700.06065647304058 127.14559261500835 176.78374513983727 273.96425439417362 401.48374304175377 47.887805551290512 1282.1678676605225 262.53788851201534 504.87132784724236 840.55958418548107 207.99326150119305 246.18386933207512 67.363855168223381 455.92725829780102 553.08894500136375 453.70696164667606 82.283474400639534 36.344858109951019 288.72525481879711 702.38881708681583 1057.9841427654028 86.834963917732239 329.75007845461369 283.09853214025497 233.27828077971935 95.370111852884293 158.1580425798893 158.16081912815571 475.24625813961029
leaf_count=1712 5596 3762 685 732 1230 1740 195 8433 1081 2386 3683 885 1247 320 2353 2738 2267 349 174 1194 3294 5940 363 1436 1449 1053 394 646 725 1993
internal_value=-0.000120147 0.0178591 -0.0241253 0.00908485 0.0333137 -0.0150066 0.00354854 -0.0332815 0.0159601 -0.00844342 0.0204217 0.00602299 0.0293736 -0.0200379 -0.0182941 -0.0119062 0.0273417 0.0246873 0.00968685 0.00806617 0.0240387 -0.0277546 0.00915422 -0.0101802 -0.0236571 -0.0138722 0.0122957 0.00885211 0.0165435 -0.00154864
internal_weight=12240.3 6998.56 5241.75 4464.09 2534.47 2626.26 2472.84 2615.49 1991.25 1139.63 1272.22 2095.2 1834.4 1486.62 1359.48 620.453 1588.22 922.843 1411.96 719.037 1134.51 1333.32 349.373 377.638 739.026 738.15 542.253 446.883 432.125 683.24
internal_count=60055 31246 28809 18721 12525 12724 10279 16085 8442 5179 5476 8648 8763 7545 6860 3058 7516 4032 5770 2966 5249 7652 1444 1631 3802 3439 2234 1840 1955 2878
is_linear=0
shrinkage=0.04


Tree=26
num_leaves=31
num_cat=0
split_feature=29 24 26 43 29 25 27 70 27 18 43 67 46 84 39 42 71 70 43 68 53 5 33 71 38 50 37 85 22 48
split_gain=1951.16 866.882 340.677 242.69 180.329 136.181 151.309 91.0457 58.2667 56.4508 56.043 49.347 47.4592 45.8116 40.4106 39.0407 37.4831 36.707 35.2884 33.4726 32.0491 28.7181 27.0022 23.608 23.5039 23.2902 23.2338 22.9251 21.7709 21.5676
threshold=-0.15634921193122861 0.45000000298023229 0.31666667759418493 1424.5682373046877 -0.56190475821495045 0.90000000596046459 0.21111111342906955 0.18333333730697635 0.76388889551162731 1.0000000180025095e-35 1788.416687011719 0.21111111342906955 287.74406433105474 1854.0428466796877 1.5000000000000002 1317.9848632812502 0.16369047760963443 1.0000000180025095e-35 1915.8115234375002 -0.50694444775581349 43.084951400756843 1.0000000180025095e-35 0.73214286565780651 0.24126984179019931 105.50000000000001 -5.7984841532743295e-06 49.500000000000007 1282.4829101562502 0.45643940567970281 0.059998365119099624
decision_type=8 10 8 2 10 10 8 10 10 10 2 10 2 10 2 2 10 10 2 10 10 2 8 10 10 2 10 10 10 2
left_child=4 3 10 17 15 6 9 8 -4 -5 19 22 13 16 -10 -1 18 26 -6 -3 -12 -17 -8 -19 -22 -11 -2 -26 -7 -21
right_child=1 2 7 5 12 28 11 -9 14 25 20 -13 -14 -15 -16 21 -18 23 -20 29 24 -23 -24 -25 27 -27 -28 -29 -30 -31
leaf_value=-0.04140501779761338 0.026559534655885512 -0.016751372903970763 0.016969648212462125 -0.00036908943854696281 -0.0086425537586828066 -0.032554917235053236 -0.002510910727653989 0.042090246827714478 0.023266577321524436 -0.032241612550056808 -0.010913143994359173 -0.010894713785507168 0.0099982939582185151 0.026563121563500755 0.036056274267896468 -0.015576346911599899 -0.026615818253512506 0.027207116490480149 -0.027715374730095478 0.021958388368876106 0.019975074229901805 -0.032358563107477145 0.008788443856022829 -0.0089877536630012175 0.025522966454955696 -0.0171247261765698 -0.0011271681856840768 -0.016563447036981437 -0.01659123854878268 0.0070932289496689477
leaf_weight=713.91993941366673 65.264282792806625 55.711621761322021 789.34623652696609 262.37576268613338 634.66587024927139 303.96257412433624 475.91785143315792 719.78885492682457 723.17056143283844 238.6464681327343 374.01780819892883 356.29040549695492 107.76542341709137 36.759292468428612 871.75515159964561 196.43833369016647 567.16783477365971 441.48049628734589 205.45651876926422 363.95387697219849 123.15670442581177 962.64307278394699 1170.9591800272465 30.847308441996574 27.98945976793766 514.90374751389027 188.73759739100933 79.606428548693657 248.3815298974514 273.53120659291744
leaf_count=4810 278 235 3379 1150 2947 1686 1991 3852 3383 1297 1698 1648 490 163 4335 1105 3133 1980 1086 1604 526 6055 4839 134 122 2519 804 351 1297 1158
internal_value=-0.000117511 0.00995033 0.0224265 -0.00282848 -0.0256921 -0.00711505 -0.00377416 0.0296222 0.0258582 -0.0163484 0.00521815 0.002603 -0.0156083 -0.0175192 0.0302572 -0.0340466 -0.0186707 0.018249 -0.0133069 0.0129816 -0.00368045 -0.0295144 0.00552313 0.0248433 0.00804273 -0.0219122 0.00598677 -0.0056153 -0.0253763 0.0155801
internal_weight=12124.6 8699.8 4402.03 4297.77 3424.82 3571.44 3019.09 3104.06 2384.27 1015.93 1297.97 2003.17 1551.81 1444.05 1594.93 1873 1407.29 726.33 840.122 693.197 604.77 1159.08 1646.88 472.328 230.753 753.55 254.002 107.596 552.344 637.485
internal_count=60055 40266 20643 19623 19789 16427 13444 14949 11097 4966 5694 8478 7819 7329 7718 11970 7166 3196 4033 2997 2697 7160 6830 2114 999 3816 1082 473 2983 2762
is_linear=0
shrinkage=0.04


Tree=27
num_leaves=31
num_cat=0
split_feature=44 44 44 44 71 71 52 37 24 48 69 70 60 39 52 44 36 25 67 44 71 17 58 60 31 51 51 69 36 37
split_gain=2887.56 544.971 249.362 94.8994 63.2345 51.4846 49.8955 48.8964 38.9035 36.4652 31.2854 30.236 30.1192 29.8464 29.2819 27.868 26.169 24.3641 23.3232 23.0704 22.9693 22.1891 21.1112 22.7838 19.5324 19.2183 18.4067 17.7063 17.5522 16.207
